tree
version=v4
num_class=3
num_tree_per_iteration=3
label_index=0
max_feature_idx=39
objective=multiclass num_class:3
feature_names=read_rate total_interactions unique_books plan_rate diversity engagement conversion_rate age gender_encoded book_read_rate book_interactions unique_users book_plan_rate book_diversity book_popularity book_conversion_rate avg_rating high_rated low_rated book_age is_old_book is_recent_book book_popularity_norm book_read_rate_norm read_rate_diff interaction_ratio compatibility_score user_book_engagement_ratio user_book_diversity_product num_genres avg_genre_read_rate max_genre_read_rate min_genre_read_rate std_genre_read_rate interactions_per_day reading_frequency activity_duration_days has_interaction is_likely_read is_likely_plan
feature_infos=[0:1] [1:103] [1:103] [0:1] none none [0:1] [0:124] [0:1] [0:1] [0:774] [0:774] [0:1] [0:1] [0:0.10618740567979147] [0:1] [0:10] [0:1] [0:1] [0:140] [0:1] [0:1] [0:0.99999999999987055] [0:0.99999999989999999] [-0.98742138364779874:1] [0.0012903225806451613:80] [0:2] [9.4173126526301303:10000000000] [0:1] [1:9] [0:1] [0:1] [0:1] [0:0.47636667364146357] [0.00065811122079631457:79] [0:47] [1:4562] [0:1] [0:1] [0:1]
tree_sizes=10648 13599 13631 472 13901 13978 480 13965 13959 9797 13967 14078 576 13998 13979 582 13977 14006 9920 13986 13981 8832 13984 14035 9927 13982 13890 786 13982 13957 687 13974 14003 685 13974 13957 691 14045 13954 686 14020 13973 687 14028 13998 690 14011 13970 686 14010 14045 689 13997 13959 687 13948 13904 690 13935 14030 686 13992 13999 12923 14012 14009 794 14037 14000 795 14000 13948 13486 14055 14006 896 14037 14051 894 13979 14058 690 14004 14013 688 14019 13967 793 13976 13900 686 14013 13894 690 14071 14047 13515 14078 14071 794 14037 14044 791 14041 13914 793 14037 14029 796 14052 14091 13671 14016 13985 792 14015 13961 794 14046 13992 797 13988 13944 685 13959 13953 689 14021 13971 795 13992 13943 799 14060 13970 688 13999 14021 800 14039 13936 691 14034 13993 693 14006 14010 693 14004 13998 691 14015 13974 13638 14029 14062 693 14051 13939 690 14008 13963 581 14111 14044 13556 14042 13967 13625 14019 13982 13545 13972 14011 693 13972 14023 689 14061 13964 691 14029 14051 687 14074 13928 691 14024 14076 589 14076 14042 13554 14055 13915 687 14080 13944 696 14019 13975 695 14001 13972 588 13989 13979 584 13987 13989 587 14086 13914 583 13990 13980 587 13993 13985 13409 14011 13939 586 14057 13967 481 14068 13852 583 14005 13943 589 14010 14034 581 14038 14039 13635 13978 13917 13561 14053 13997 582 14064 13983 13646 14033 14045 588 13999 14043 588 14046 14015 13539 13928 13910 13644 14049 13934 585 13996 14007 581 14062 13962 589 14032 13948 482 14067 13964 586 14067 13960 587 13972 13933 482 13981 13989 483 13977 13950 13457 13986 13938 485 14022 14069 484 14026 14037 479 14024 14016 13492 14027 14091 482 14048 14053 480 13995 13970 481 14005 14028 482 13987 13991 480 13931 14026 13532 14023 13947 481 14008 14023 480 14028 13986 481 13987 13988 12065 13994 14068 12516 14026 13995 482 13949 14041 481 13945 13953

Tree=0
num_leaves=102
num_cat=0
split_feature=27 14 2 34 34 27 14 7 34 22 35 27 35 7 16 7 36 16 7 34 35 36 11 7 34 36 35 36 27 12 7 32 27 7 7 0 27 7 2 34 31 31 35 16 2 2 35 36 34 15 16 31 12 15 9 34 33 7 35 34 36 10 31 11 22 12 0 22 34 31 2 7 35 16 32 2 16 7 10 33 7 2 7 23 36 2 33 12 8 16 12 34 35 7 34 22 7 11 31 9 2
split_gain=18529.9 7199.78 2834.42 1736.26 639.2 410.49 380.082 274.263 221.322 210.793 140.515 124.789 117.049 88.9466 80.1906 86.7017 78.6264 75.9099 72.1644 64.8725 60.7552 48.7458 45.9569 45.3997 45.0528 44.5096 43.9235 40.8362 59.197 39.0764 37.4617 37.1491 34.5441 33.5818 54.1682 32.5204 48.4307 32.1659 31.4293 30.4437 29.6362 29.626 27.4322 32.0774 45.1617 26.1778 28.0066 25.7221 25.6451 25.2196 23.7467 23.8989 23.1307 21.9209 20.5369 19.7979 20.8939 25.4705 19.6868 17.928 17.6434 16.6455 15.7004 15.1742 15.1364 14.9931 14.5728 14.0457 15.8716 13.8288 12.801 11.856 28.3097 10.6993 10.1569 10.0925 22.421 9.30626 9.2015 8.84987 8.81979 14.9132 8.34887 8.22024 6.07334 5.68702 14.8117 14.2154 5.01806 4.50833 4.41557 4.2165 3.84205 3.37104 2.13947 2.08473 2.02907 1.5509 1.38729 0.266734 0.244302
threshold=5000003644.497344 0.017903690492522984 5.5000000000000009 0.019658977721890961 0.051575469563249612 36.5384063190725 0.030937028398957334 27.500000000000004 0.0098068769211002299 0.31371280724446138 0.0043663057822704169 29.393040564005805 0.006754977420397777 26.500000000000004 4.9393382352941186 30.500000000000004 1548.5000000000002 5.633763610005861 31.500000000000004 1.0470085470085473 0.023950441092638594 1548.5000000000002 155.00000000000003 34.500000000000007 1.7918918918918922 1509.5000000000002 0.010227848880177271 1051.5000000000002 41.771116410080815 0.4287703939514525 32.500000000000007 0.52490729179085294 18.886588629231628 13.500000000000002 9.5000000000000018 0.070197044334975381 20.564667685517993 29.500000000000004 49.500000000000007 0.022233148861143467 0.63525262075643385 0.52160722610823429 0.018862982693695209 6.6191683569979718 47.500000000000007 55.500000000000007 0.017440428545040333 971.50000000000011 1.0470085470085473 0.61075036075036093 2.8530997304582217 0.6521715235845601 0.62593283582089565 0.81517439769866962 0.61075036075036093 0.058774189578324802 0.021360559620564712 38.500000000000007 0.022537239671731799 0.1983208889823676 268.50000000000006 614.00000000000011 0.53614982578397219 376.50000000000006 0.36934023285894318 0.47119916215744462 0.68237250554323736 0.48576972833111443 0.12451038330974011 0.51656791748957664 75.500000000000014 28.500000000000004 0.0017421655664314442 4.7167203435319385 0.58611262234034955 34.500000000000007 4.770567454184147 34.500000000000007 286.50000000000006 0.042337539002367156 10.500000000000002 72.500000000000014 32.500000000000007 0.67633053214525229 740.00000000000011 45.500000000000007 0.10079834187302489 0.37011669203450032 1.0000000180025095e-35 4.7167203435319385 0.48360215053763445 0.023584944692330117 0.013315712448051216 34.500000000000007 0.095118816226722691 0.24385510996115864 25.500000000000004 376.50000000000006 0.68729562833283031 0.65390254906383949 10.500000000000002
decision_type=2 2 2 2 2 2 2 2 2 2 2 2 2 2 2 2 2 2 2 2 2 2 2 2 2 2 2 2 2 2 2 2 2 2 2 2 2 2 2 2 2 2 2 2 2 2 2 2 2 2 2 2 2 2 2 2 2 2 2 2 2 2 2 2 2 2 2 2 2 2 2 2 2 2 2 2 2 2 2 2 2 2 2 2 2 2 2 2 2 2 2 2 2 2 2 2 2 2 2 2 2
left_child=1 -1 7 5 6 12 10 17 21 13 29 48 25 33 38 92 30 24 42 -13 49 -7 41 71 79 40 -17 60 -29 37 54 -28 53 34 70 75 63 -5 50 -24 82 -18 43 64 -45 46 52 -32 -9 65 -10 -52 61 77 -12 56 90 -58 -55 66 -22 -14 91 -37 -8 -15 -35 68 -57 -31 -6 80 74 -38 -73 76 -27 -20 -74 -3 81 -11 100 -64 -82 87 -87 -44 -51 -69 -25 -34 98 -40 -19 -71 -61 99 -16 -48 -4
right_child=-2 2 3 4 9 8 18 11 14 23 16 19 45 20 15 26 22 94 32 -21 27 -23 39 55 -26 35 31 28 -30 69 47 -33 62 59 -36 36 73 -39 93 -41 -42 -43 85 44 -46 -47 97 -49 -50 88 51 -53 -54 58 -56 67 57 -59 -60 96 -62 -63 83 -65 -66 -67 -68 89 -70 95 -72 72 78 -75 -76 -77 -78 -79 -80 -81 84 -83 -84 -85 -86 86 -88 -89 -90 -91 -92 -93 -94 -95 -96 -97 -98 -99 -100 -101 -102
leaf_value=-3.6307690005829993 -3.3766128357789067 -3.5121297827392137 -3.6223785593270961 -3.5890949298197059 -3.6206420166331608 -3.5623917301707539 -3.6024729062250258 -3.5123180584376708 -3.6114958519133293 -3.6222429516394699 -3.5957988650722004 -3.4454434476982669 -3.5892741025742132 -3.6228414062648198 -3.5608115093265713 -3.4911097091615999 -3.6081431115744933 -3.6038421796444351 -3.6191951110581195 -3.5565062312801601 -3.6126155969432148 -3.4716051180049137 -3.5718185591606173 -3.6283080692420597 -3.6137254280691908 -3.572576933957138 -3.6092739543889505 -3.6113498361926357 -3.5812864405776828 -3.6226704988381262 -3.5737526349750639 -3.5338421689463493 -3.5982272189148397 -3.6210845488445123 -3.5451574262968952 -3.6239207050982287 -3.5766432098229219 -3.5242135298451269 -3.6198261119980346 -3.5936510067249632 -3.5617180032344957 -3.572879038830385 -3.6216893300057049 -3.6234356945230912 -3.5659859913654057 -3.6285592889506724 -3.622378118059919 -3.596781586244548 -3.5945742088331025 -3.6047803592816745 -3.5517744596086374 -3.5973333762031432 -3.5389663825457696 -3.5808063146042048 -3.6115979537274057 -3.6034270417441441 -3.5636877027219587 -3.6239207050982287 -3.6124349773302584 -3.6291147587142505 -3.6062483875277778 -3.6221422035084911 -3.5993265576405271 -3.5836109666603906 -3.6160776107389117 -3.5880927335848334 -3.6068840816736971 -3.6283797528641535 -3.6171152329381404 -3.5691095510077355 -3.584406453167599 -3.6158090220237113 -3.6161196052833899 -3.5313278240694883 -3.5646615014112735 -3.5844064538648497 -3.4960335214126501 -3.6081223004154777 -3.6231228995902915 -3.5853062391497028 -3.6274804578041331 -3.582943986535494 -3.5960763139900283 -3.5896297078400581 -3.6216063922478914 -3.6243658752392993 -3.5925809205943366 -3.6062884831792017 -3.5594804205951016 -3.6190960268456225 -3.6038421797302078 -3.618847329045936 -3.6048618272036377 -3.5934001348318545 -3.6239207050982287 -3.605655363936267 -3.6229329060562194 -3.6128822224006867 -3.6001083547048069 -3.6278004724906046 -3.6276580505289813
leaf_weight=4596.5566113702953 29.835123062133789 2.7264267839491398 0.77896352857351647 1.5968885868787746 5.5308212749660006 1.4411211907863606 12.035321049392222 7.2056107744574573 1.2074269093573153 5.4529101327061644 13.398541506379841 9.8931089416146261 20.643101066350951 2.1032558381557447 1.830614693462848 5.0634022131562215 3.1938414946198455 0.77898494899272952 17.760871611535549 1.1684774681925763 85.02620841935277 5.725539356470108 8.3351360037922841 1.7526832371950143 0.81793420016765583 1.4021729007363348 1.0516297295689581 13.554338172078134 13.826982975006102 0.81793421134352673 7.4003567434847382 3.8170262388885021 1.20740696042776 26.446539677679539 1.2074266672134397 1.2463758960366229 2.4538026638329029 4.9465544559061527 1.4411221481859677 56.788003943860531 1.713766887784004 33.885845471173525 17.215567290782932 2.2980055250227442 3.5443815104663372 1.9864116236567486 0.77898494899272908 23.797990299761295 0.77898496016859997 0.81793419644236554 10.827891029417513 2.0643101558089247 0.77898493409156699 4.2844171002507192 26.251792352646589 14.294373854994772 2.2201071083545689 1.0905789099633691 4.5570619627833366 20.876796506345276 106.09775156527758 1.9085131436586369 42.922063551843166 4.557061992585659 30.263564929366112 3.6612292639911175 10.126804374158381 5.9981840625405338 23.797989718616009 3.7391277514398098 0.97373120486736287 0.97373537346720584 23.525344613939524 3.3106860183179379 0.89583269134163857 0.97373117879033078 2.1422086097300053 15.112307727336882 95.036105535924435 0.77898494154214848 83.312441948801279 0.93478193879127491 1.4021729193627832 18.150350853800774 21.422085832804441 25.472807671874765 1.2463759146630753 9.4646672233939153 3.8949247039854527 25.317010924220085 0.77898494154214848 5.4918438494205475 1.2074266821146009 1.0126804225146768 1.2853251621127126 0.85688345134258259 5.9592349529266349 1.3242743983864782 0.97373118251562107 1.4021729081869123 1.3242744244635103
leaf_count=118014 766 70 20 41 142 37 309 185 31 140 344 254 530 54 47 130 82 20 456 30 2183 147 214 45 21 36 27 348 355 21 190 98 31 679 31 32 63 127 37 1458 44 870 442 59 91 51 20 611 20 21 278 53 20 110 674 367 57 28 117 536 2724 49 1102 117 777 94 260 154 611 96 25 25 604 85 23 25 55 388 2440 20 2139 24 36 466 550 654 32 243 100 650 20 141 31 26 33 22 153 34 25 36 34
internal_value=-3.62393 -3.62524 -3.60246 -3.60491 -3.60866 -3.56233 -3.59878 -3.49869 -3.53729 -3.61513 -3.58831 -3.47937 -3.58161 -3.60917 -3.5506 -3.53185 -3.59074 -3.56063 -3.60801 -3.45482 -3.60613 -3.48625 -3.58502 -3.62097 -3.53797 -3.5637 -3.51554 -3.60733 -3.59576 -3.55497 -3.59916 -3.54776 -3.60236 -3.61902 -3.59968 -3.55515 -3.56765 -3.53739 -3.56793 -3.59058 -3.59289 -3.57569 -3.61418 -3.6087 -3.58697 -3.59543 -3.59285 -3.5908 -3.51863 -3.58261 -3.56208 -3.55807 -3.58892 -3.60985 -3.60601 -3.61424 -3.59674 -3.58118 -3.59587 -3.62152 -3.60904 -3.59186 -3.59788 -3.5916 -3.61201 -3.5996 -3.61696 -3.61586 -3.61178 -3.58018 -3.61327 -3.62318 -3.621 -3.54683 -3.58511 -3.52927 -3.51916 -3.61392 -3.62169 -3.52328 -3.62552 -3.61446 -3.61262 -3.59624 -3.62625 -3.61924 -3.62266 -3.61598 -3.56513 -3.62099 -3.62051 -3.61376 -3.57765 -3.60569 -3.61425 -3.57377 -3.62764 -3.62051 -3.56987 -3.6247 -3.62451
internal_weight=5742.56 5712.73 1116.17 1090.73 1002.94 87.7916 396.036 25.4338 37.6639 606.907 185.009 19.0462 50.1277 300.104 30.4973 13.9438 173.052 6.38766 211.027 11.0616 228.983 7.16666 102.203 306.803 4.32335 21.3052 9.93206 218.505 27.3813 11.9574 70.8487 4.86866 109.486 71.1214 7.71198 16.086 11.5679 6.54344 16.5534 65.1231 5.21918 37.0797 101.541 48.1413 5.84239 28.8224 26.836 31.1983 7.9846 10.4773 14.0996 12.8922 23.3306 41.7147 39.6503 75.2499 5.84235 3.31069 8.84148 63.4094 191.124 22.5516 67.7717 5.80344 42.2989 5.76449 36.5733 69.4076 38.0924 5.41395 6.50455 231.553 120.431 5.76449 1.86957 4.51811 3.54438 32.8732 118.561 3.50541 111.122 6.38769 3.50541 61.0724 104.735 53.3994 26.7192 26.6802 4.71286 31.3152 2.53167 6.69925 4.01177 2.4538 2.06431 4.59601 26.836 3.50543 2.80435 2.18116 2.10324
internal_count=147437 146671 28657 28004 25750 2254 10168 653 967 15582 4750 489 1287 7705 783 358 4443 164 5418 284 5879 184 2624 7877 111 547 255 5610 703 307 1819 125 2811 1826 198 413 297 168 425 1672 134 952 2607 1236 150 740 689 801 205 269 362 331 599 1071 1018 1932 150 85 227 1628 4907 579 1740 149 1086 148 939 1782 978 139 167 5945 3092 148 48 116 91 844 3044 90 2853 164 90 1568 2689 1371 686 685 121 804 65 172 103 63 53 118 689 90 72 56 54
is_linear=0
shrinkage=1


Tree=1
num_leaves=127
num_cat=0
split_feature=26 26 26 37 37 26 3 0 26 26 26 9 37 0 12 37 24 12 9 12 3 26 26 26 34 37 24 9 26 26 0 0 34 26 11 36 0 35 7 0 0 24 3 0 1 12 7 0 0 16 12 11 1 7 16 35 26 7 2 1 12 3 7 18 9 3 30 7 21 16 27 30 7 35 31 16 34 36 24 25 24 7 1 30 25 26 1 34 34 16 31 1 26 2 26 2 3 3 35 7 35 27 36 7 25 33 30 30 35 35 16 0 25 9 36 7 26 3 36 31 9 31 36 30 26 27
split_gain=31805.9 4573.38 4119.08 3074.48 488.694 469.119 418.729 358.532 355.992 306.493 297.007 265.43 226.857 225.102 108.168 91.5982 83.631 77.0825 71.857 58.9823 46.0012 45.5199 45.4785 44.9372 40.7891 39.3286 39.0692 35.8429 45.981 29.935 29.5986 27.0263 26.6103 19.1889 18.8196 18.1692 16.9143 16.7217 16.5347 15.937 15.8682 16.435 15.8221 13.9655 12.4262 12.1959 11.7246 11.6159 11.3668 10.1265 9.87765 9.6158 9.36387 9.16525 9.1178 8.98642 8.85539 12.0948 8.59929 8.37416 8.29063 8.24198 8.06575 9.09037 8.01065 7.72207 7.66853 7.56791 7.09569 7.06347 6.58235 6.43955 6.41702 10.2104 6.382 6.3518 6.08005 5.99528 5.9696 5.93807 5.87151 7.17262 5.8084 5.50458 7.18064 5.37729 5.26454 5.23464 6.91695 6.15215 5.11228 5.01355 4.93636 4.84958 4.74843 4.7114 4.66785 4.595 4.44884 4.37555 4.26771 4.81605 6.83247 4.25595 4.19538 4.15291 4.09261 3.89727 3.65837 3.61219 3.574 3.53114 3.47898 3.42794 3.31724 3.42958 3.31087 3.26417 3.25519 3.2277 3.166 3.15024 3.11887 7.38174 3.05742 3.02051
threshold=1.2831786178304363 1.4307837651248139 1.1344682700666475 1.0000000180025095e-35 1.0000000180025095e-35 1.0381149765605728 0.14119601328903661 0.89039039039039047 1.3535796957671959 1.5836881759355628 1.2134704202742179 0.932768361581921 1.0000000180025095e-35 0.86425061425061445 0.18587617468214487 1.0000000180025095e-35 -0.51155626780626762 0.080816326530612229 0.81517439769866962 0.053063824081523166 0.049390243902439075 1.0957874571486188 1.3222954847172419 1.1765761688698955 0.22040571199786471 1.0000000180025095e-35 -0.51155626780626762 0.87577160493827166 1.486596710733004 1.2583791494546646 0.97259759759759767 0.94365079365079374 0.22040571199786471 1.6944589271231609 16.500000000000004 702.00000000000011 0.69705149501661146 0.22792207792207794 26.500000000000004 0.94365079365079374 0.97467948717948727 -0.22007424764777705 0.16843971631205676 0.74754901960784326 66.500000000000014 0.26695402298850585 37.500000000000007 0.65058139534883741 0.77888888888888907 4.588989441930619 0.053063824081523166 67.500000000000014 30.500000000000004 29.500000000000004 5.0064102564102573 0.057877106532676324 1.3996846559057723 36.500000000000007 51.500000000000007 39.500000000000007 0.31838294448913929 0.45244249159989669 48.500000000000007 1.0000000180025095e-35 0.99371069182389948 0.21845174973488865 0.44211687856514176 30.500000000000004 1.0000000180025095e-35 5.335341365461848 24.018104083190313 0.65509763877459171 32.500000000000007 39.500000000000007 0.59128942063910717 3.5044642857142865 0.076032349338246444 1051.5000000000002 0.66690578670492606 5.3923076923076936 -0.46574492938303064 35.500000000000007 41.500000000000007 0.63897586211621915 0.43188542227003773 1.2020225804073228 40.500000000000007 0.71779859484777531 17.833333333333339 2.5042372881355939 0.66650091165257763 41.500000000000007 1.6236860335532064 59.500000000000007 1.0705444642127986 23.500000000000004 0.14119601328903661 0.42967032967032975 0.011187620011784374 32.500000000000007 0.14341300722623682 156.77081160306167 190.50000000000003 46.500000000000007 4.4494949494949507 0.0868650244490521 0.63164219357712159 0.45413750084750687 37.500000000000007 0.043997141664485186 3.010869565217392 0.45115856428895962 1.9740215924426454 0.91695402298850581 129.50000000000003 26.500000000000004 1.0003132832080202 0.47413024085637828 899.50000000000011 0.71910819782226232 0.28730158730158734 0.55910817506193244 1098.5000000000002 0.65721923340824007 1.3622866246617107 14.897559476752223
decision_type=2 2 2 2 2 2 2 2 2 2 2 2 2 2 2 2 2 2 2 2 2 2 2 2 2 2 2 2 2 2 2 2 2 2 2 2 2 2 2 2 2 2 2 2 2 2 2 2 2 2 2 2 2 2 2 2 2 2 2 2 2 2 2 2 2 2 2 2 2 2 2 2 2 2 2 2 2 2 2 2 2 2 2 2 2 2 2 2 2 2 2 2 2 2 2 2 2 2 2 2 2 2 2 2 2 2 2 2 2 2 2 2 2 2 2 2 2 2 2 2 2 2 2 2 2 2
left_child=2 6 3 -1 -4 116 20 10 12 11 17 13 -8 25 26 -16 113 -6 24 -7 -2 54 32 36 29 -3 -10 28 51 38 -15 61 58 40 87 62 67 59 55 91 41 -11 -25 104 107 98 -46 -40 -47 53 -20 108 -52 -44 78 -12 57 93 79 76 -61 74 63 -36 -13 120 -60 97 -69 -53 106 77 73 -67 -23 -74 -24 -59 94 -18 82 -82 -63 84 -39 -51 -45 89 124 109 96 -9 125 -28 -21 -29 -38 -19 -37 -90 103 102 -102 111 -31 -76 -30 -34 -27 -17 -91 -58 -93 -14 115 -97 -5 -85 -72 -64 -26 -56 -123 -124 -89 -43
right_child=1 9 4 5 7 19 8 39 14 33 18 64 16 30 15 34 22 23 50 21 -22 31 37 42 65 27 56 95 70 43 -32 -33 44 -35 35 45 90 83 47 -41 -42 92 49 86 46 48 -48 -49 -50 85 52 69 -54 -55 121 -57 100 71 66 60 -62 80 119 -65 -66 72 -68 68 -70 -71 118 -73 75 -75 105 -77 -78 -79 -80 -81 81 -83 -84 117 -86 -87 -88 88 99 110 -92 112 -94 -95 -96 114 -98 -99 -100 -101 101 -103 -104 -105 -106 -107 -108 -109 -110 -111 -112 -113 -114 -115 -116 -117 -118 -119 -120 -121 -122 122 123 -125 -126 -127
leaf_value=-0.91080166630755144 -0.91047948249865451 -0.91076863080650028 -0.91078021225895545 -0.88318860360911766 -0.91052971801660509 -0.90951600953922873 -0.91077693869847887 -0.90545489971516191 -0.91056514560785107 -0.9105812699388447 -0.89423059593604592 -0.90904696207979951 -0.90479664122223136 -0.90818167049357335 -0.91076136099749883 -0.90872743351580487 -0.90026092585721229 -0.89276869513632984 -0.91057998090702941 -0.88561173827856854 -0.90568628008118945 -0.89319744385619371 -0.90320499826113776 -0.90284916159448558 -0.89390113371811164 -0.90450461939387394 -0.90796811638211306 -0.90038564500368468 -0.90446099473699726 -0.89681432640039593 -0.91063827341799752 -0.9074775299937925 -0.90422606491624447 -0.91062544609263651 -0.90012562671398177 -0.89940400086173267 -0.89983492245414298 -0.89524213796777496 -0.89525299300608419 -0.91012321042207123 -0.91077123244346803 -0.9042516983175295 -0.89173627928082255 -0.90557700126771734 -0.89417487549399433 -0.90115534819049603 -0.89946447674514118 -0.8978109018582574 -0.90456192269139868 -0.89391159711327828 -0.89622253960107712 -0.90381121076041093 -0.90635090955456665 -0.89320677379750046 -0.89442366143850915 -0.89109128555589323 -0.90175465188646342 -0.89588672425376559 -0.89500951618524871 -0.90079388653943404 -0.89949458854943121 -0.88994630731706681 -0.90621088480002032 -0.90307208751695345 -0.91081214113581377 -0.89219474718669278 -0.89830771203219184 -0.89063601662500425 -0.89221154477862252 -0.90192724607427122 -0.90577264833344662 -0.89314183006891346 -0.89220774885325238 -0.90131125335280904 -0.8883943152381466 -0.89545372815068791 -0.89792861625403786 -0.90621141641272462 -0.89344788584686441 -0.89680724878500395 -0.8880931790511909 -0.88992456928495256 -0.89626430332921758 -0.8911447322701731 -0.89939755550836287 -0.8974954506643843 -0.89946170460073038 -0.89390117069386898 -0.90722859523243349 -0.90002290591448819 -0.90224049126077199 -0.90368056085567361 -0.90925245067039684 -0.90344677037966925 -0.88696409392821796 -0.90284733907486758 -0.89334791583693751 -0.88981551195992059 -0.90321367836672117 -0.89957785017514225 -0.90760709936731432 -0.90118738972578105 -0.89841962997692681 -0.90012518581306489 -0.89563485962124145 -0.89684601669566066 -0.89745792727572771 -0.89786720430041478 -0.90031573189677661 -0.90269960683678063 -0.90308915972926096 -0.90629127301500167 -0.89454019682496988 -0.91038366584186303 -0.9076804220358542 -0.90676919137860279 -0.88406366338025033 -0.89652855304142054 -0.90672751363699866 -0.89937732931233272 -0.90073641070138954 -0.88703910171012534 -0.88853148200079224 -0.89692397061538465 -0.8998119936238681 -0.90828009233555018
leaf_weight=469.81660610437393 435.7964962720871 136.45674923062325 181.70102947950363 6530.7252584397793 22.080221265554428 12.306827187538145 166.13699707388878 43.796462267637253 145.14365899562836 753.58874797821045 427.82754808664322 336.98133087158203 17.373803555965424 970.39975070953369 117.99708288908005 31.490053236484528 351.81530463695526 67.32392156124115 26.784619987010956 646.45111009478569 381.13782405853271 89.402992188930511 126.68670749664307 15.564058035612105 9.7727286517620104 948.31908920407295 30.043947517871857 10.860588282346724 186.40663751959801 1343.2127813994884 1052.9247169494629 7.6010391116142264 9.7727606594562513 6040.6563415527344 1164.0449349284172 30.404221296310425 13.030353158712385 60.08440700173378 2551.4191130399704 124.51227337121964 1054.011079788208 23.527880907058716 688.43700155615807 18.097712486982346 304.40352165699005 1169.1122641563416 49.949686229228973 195.81731939315796 107.86237743496895 126.32204040884972 14.116215944290159 430.36360177397728 23.527025699615479 1293.9864104688168 13.754261642694471 123.42639857530594 20.26936799287796 9.7727646529674548 73.114526599645615 697.84786206483841 1643.6341406702995 61.532231420278549 33.661744624376297 115.46340480446815 2062.0519409179688 502.3924908041954 2475.0434133410454 735.12901735305786 547.99878731369972 393.08230891823769 1004.4236380755901 15.564032375812529 95.917876303195953 11.944489926099775 74.200619876384735 191.1118406355381 25.336796998977661 11.944490075111387 14.116215467453001 57.550725132226944 912.48652800917625 333.35988107323647 21.717254549264908 19.545529574155807 138.99042999744415 68.047389984130859 56.102907955646515 9.7727670669555646 20.993346363306046 41.98669171333313 9.7727645337581617 7.601039081811904 1187.5719718933105 155.27836999297142 682.28305602073669 34.385647922754288 50.673594146966934 803.53842464089394 729.33780497312546 11.582535803318022 39.091060101985931 48.139914512634277 9.4108102023601514 13.39230704307556 414.07565784454346 7.6010391116142264 7.9629933238029471 154.19250839948654 23.165070593357086 17.735757887363434 981.61991459131241 454.25258472561836 8.3249475955963117 60.808324098587036 630.16234636306763 95.193965911865234 739.1110543012619 34.023698806762695 705.81110048294067 7.6010390520095816 19.183574885129929 64.065901637077332 42.348646551370621 15.564032405614851 61.170265913009644 818.74050498008728
leaf_count=1298 1204 377 502 18043 61 34 459 121 401 2082 1182 931 48 2681 326 87 972 186 74 1786 1053 247 350 43 27 2620 83 30 515 3711 2909 21 27 16689 3216 84 36 166 7049 344 2912 65 1902 50 841 3230 138 541 298 349 39 1189 65 3575 38 341 56 27 202 1928 4541 170 93 319 5697 1388 6838 2031 1514 1086 2775 43 265 33 205 528 70 33 39 159 2521 921 60 54 384 188 155 27 58 116 27 21 3281 429 1885 95 140 2220 2015 32 108 133 26 37 1144 21 22 426 64 49 2712 1255 23 168 1741 263 2042 94 1950 21 53 177 117 43 169 2262
internal_value=-0.899557 -0.905916 -0.890185 -0.885796 -0.894536 -0.884651 -0.901322 -0.894258 -0.900853 -0.909047 -0.894015 -0.907713 -0.899254 -0.90668 -0.902697 -0.902067 -0.898949 -0.892052 -0.895463 -0.887985 -0.90825 -0.887894 -0.89882 -0.891958 -0.895349 -0.905457 -0.90577 -0.905293 -0.904881 -0.895683 -0.909463 -0.889134 -0.89806 -0.910266 -0.90184 -0.901456 -0.890952 -0.89978 -0.895112 -0.908071 -0.909698 -0.90929 -0.892983 -0.896714 -0.895967 -0.902049 -0.894911 -0.895434 -0.901447 -0.89291 -0.905928 -0.903726 -0.902477 -0.892693 -0.886635 -0.893518 -0.9049 -0.90316 -0.898428 -0.90003 -0.899881 -0.889037 -0.900538 -0.900395 -0.910567 -0.893286 -0.898211 -0.89079 -0.891305 -0.902917 -0.905966 -0.898033 -0.893102 -0.892413 -0.891222 -0.894352 -0.902304 -0.901442 -0.886372 -0.899766 -0.88876 -0.888578 -0.891541 -0.897333 -0.898124 -0.895146 -0.900931 -0.902932 -0.900736 -0.90314 -0.895765 -0.903712 -0.908807 -0.904208 -0.886301 -0.907266 -0.894717 -0.890038 -0.903057 -0.904538 -0.905555 -0.903529 -0.905767 -0.905948 -0.896534 -0.88913 -0.904156 -0.898272 -0.904408 -0.906648 -0.902966 -0.906105 -0.899083 -0.909205 -0.90736 -0.905762 -0.883277 -0.894472 -0.90617 -0.904888 -0.898497 -0.889274 -0.888731 -0.89071 -0.899019 -0.908173
internal_weight=53365.4 31794.4 21571 10738.4 10832.6 10268.6 12887.4 10650.9 12070.5 18907 10466.6 9028.95 6466.31 6629.92 5604.14 4651.84 6300.17 4441.9 6024.73 2998.79 816.934 2986.48 6221.99 4419.82 5960.3 4606.59 952.303 4470.14 3699.53 5129.98 2023.32 1507.9 3475.84 9878.1 4533.84 3357.49 2227.47 2746.15 3298.49 184.235 3837.44 2783.43 2192.36 1831.49 518.318 2036.72 354.353 2747.24 1276.97 2176.79 64.4279 1794.93 37.6432 1982.42 1478.58 551.254 807.16 222.604 2957.52 2493.51 2341.48 1500.3 1320.77 1279.51 2399.03 830.323 2548.16 2153.99 1283.13 823.446 1904.6 37.2813 801.367 514.337 171.205 287.03 152.024 21.7173 1342.85 409.366 1329.1 1245.85 83.2495 252.644 199.075 194.369 74.2006 1176.35 103.519 1072.83 73.4767 59.7224 2029.84 185.322 1328.73 770.603 63.7039 870.862 759.742 32.5759 584.556 96.6418 48.5019 487.914 1757.29 81.8017 194.37 163.965 971.484 49.2258 1023.61 474.522 15.926 78.1821 759.742 129.58 7269.84 53.5692 1710.23 41.2628 28.9563 135.733 121.979 57.9127 70.943 842.268
internal_count=147437 87841 59596 29668 29928 28370 35605 29426 33348 52236 28917 24945 17865 18317 15483 12852 17406 12272 16645 8285 2257 8251 17190 12211 16467 12727 2631 12350 10221 14173 5590 4166 9603 27291 12526 9276 6154 7587 9113 509 10602 7690 6057 5060 1432 5627 979 7590 3528 6014 178 4959 104 5477 4085 1523 2230 615 8171 6889 6469 4145 3649 3535 6628 2294 7040 5951 3545 2275 5262 103 2214 1421 473 793 420 60 3710 1131 3672 3442 230 698 550 537 205 3250 286 2964 203 165 5608 512 3671 2129 176 2406 2099 90 1615 267 134 1348 4855 226 537 453 2684 136 2828 1311 44 216 2099 358 20085 148 4725 114 80 375 337 160 196 2327
is_linear=0
shrinkage=1


Tree=2
num_leaves=127
num_cat=0
split_feature=26 26 26 37 37 3 26 26 26 26 9 3 6 37 9 3 9 24 26 9 3 26 24 9 9 26 3 34 34 37 26 26 6 3 36 34 26 35 6 24 26 6 14 24 2 26 7 7 16 3 6 14 32 1 26 16 25 26 7 36 2 39 2 23 3 7 6 24 14 2 16 3 31 24 7 16 22 35 34 25 24 32 31 26 7 35 6 9 6 1 1 19 25 1 26 32 31 1 1 35 3 6 35 35 33 14 9 26 14 1 36 7 36 24 6 31 7 37 25 36 6 14 14 25 19 6
split_gain=31914.6 4840.22 4579.16 2798.3 1015.64 418.893 395.567 359.893 309.386 281.222 276.874 268.508 224.752 187.737 111.048 94.0729 85.6422 82.1106 74.434 70.0737 45.6066 44.6461 38.2819 37.7 35.1491 45.1184 29.4074 28.0195 26.2046 25.885 23.0113 19.6513 19.5769 19.5099 18.6505 17.9694 17.5076 16.482 15.3678 16.8569 14.6727 13.2549 13.2421 12.3743 12.263 12.2297 11.785 11.5009 11.2139 10.4812 9.61419 9.38693 9.31315 9.21847 9.1308 9.10057 9.07161 9.06067 9.49695 8.75763 8.40521 8.20543 8.17319 7.93175 7.90703 7.52756 7.36078 7.35032 7.20698 7.17844 6.88256 6.87902 6.84735 6.79318 7.05516 6.42884 6.40383 6.30251 6.02015 5.88699 5.50248 5.48486 5.44393 5.1066 5.10048 4.99631 4.81597 4.69704 8.29616 4.6091 4.57535 4.40836 4.34967 4.18949 4.17631 4.13731 4.07163 3.93414 3.88662 3.81968 3.66869 3.56725 3.77478 3.54626 3.38243 3.31597 3.29874 3.27524 3.26789 3.24081 3.18906 3.30798 3.1268 2.8899 2.68137 2.61039 2.57225 2.45244 2.32101 2.31181 2.32326 2.1684 2.10995 2.18723 2.0451 5.39083
threshold=1.2831786178304363 1.1174970191099225 1.4307837651248139 1.0000000180025095e-35 1.0000000180025095e-35 0.14119601328903661 1.1897846997295571 1.3535796957671959 1.5836881759355628 1.0381149765605728 0.932768361581921 0.10960960960960965 0.86425061425061445 1.0000000180025095e-35 0.81517439769866962 0.14119601328903661 0.87577160493827166 -0.51155626780626762 1.2333412061092743 0.91695402298850581 0.049390243902439075 1.3222954847172419 -0.51155626780626762 0.932768361581921 0.87577160493827166 1.486596710733004 0.027402402402402385 0.25751745122606057 0.22040571199786471 1.0000000180025095e-35 1.1509360943980373 1.6944589271231609 0.65058139534883741 0.070598006644518277 857.50000000000011 0.17488938053097347 1.0957874571486188 0.22792207792207794 0.97467948717948727 -0.22007424764777705 1.3713203597702701 0.94365079365079374 0.012964741391137331 -0.22007424764777705 66.500000000000014 1.2583791494546646 26.500000000000004 37.500000000000007 2.5042372881355939 0.31072796934865904 0.95180023228803723 0.009260529565098095 0.5029113593414184 73.500000000000014 1.2020225804073228 4.8198949644732787 0.6802061855670104 1.3996846559057723 37.500000000000007 562.50000000000011 51.500000000000007 1.0000000180025095e-35 39.500000000000007 0.99371069172452842 0.49305421570519009 36.500000000000007 0.74754901960784326 -0.18716897856242112 0.0052819316778707649 61.500000000000007 5.335341365461848 0.21845174973488865 0.66650091165257763 -0.2378286514480544 40.500000000000007 4.9931506849315079 0.39521345407498126 0.010227848880177271 0.076032349338246444 5.3923076923076936 -0.25530728907232142 0.35896387613476743 0.66650091165257763 1.6236860335532064 36.500000000000007 39.500000000000007 0.53436466698157781 0.52198067632850254 0.54201977401129953 77.500000000000014 23.500000000000004 6.5000000000000009 9.5857142857142872 47.500000000000007 1.0705444642127986 0.59128942063910717 0.72433852936980236 28.500000000000004 59.500000000000007 0.051546477352928971 0.23606811145510839 0.45115856428895962 0.14341300722623682 37.500000000000007 0.039516570696430511 0.065303882562765828 0.91695402298850581 1.0003132832080202 0.0041843874331183983 41.500000000000007 129.50000000000003 26.500000000000004 899.50000000000011 -0.29544657097288668 0.82683658170914553 0.53614982578397219 30.500000000000004 1.0000000180025095e-35 0.74095860566448812 268.50000000000006 0.94365079365079374 0.033406502949650162 0.0018521059130196188 4.0571895424836608 4.5000000000000009 0.69705149501661146
decision_type=2 2 2 2 2 2 2 2 2 2 2 2 2 2 2 2 2 2 2 2 2 2 2 2 2 2 2 2 2 2 2 2 2 2 2 2 2 2 2 2 2 2 2 2 2 2 2 2 2 2 2 2 2 2 2 2 2 2 2 2 2 2 2 2 2 2 2 2 2 2 2 2 2 2 2 2 2 2 2 2 2 2 2 2 2 2 2 2 2 2 2 2 2 2 2 2 2 2 2 2 2 2 2 2 2 2 2 2 2 2 2 2 2 2 2 2 2 2 2 2 2 2 2 2 2 2
left_child=1 9 4 -4 -2 20 15 17 10 107 12 50 24 -13 34 41 18 106 35 29 -6 28 -16 33 25 51 -14 32 60 -17 61 38 45 -11 40 46 75 62 39 -10 87 122 69 77 100 -20 55 -46 -45 72 109 103 -50 -44 -48 -15 97 58 98 -34 79 86 78 -12 124 68 -62 -64 -37 -42 -53 114 81 80 -75 94 112 93 -23 -19 -51 -32 -60 105 -63 -73 91 115 -89 95 -26 -31 -67 -36 -35 -39 -78 -18 -24 -88 -30 118 -103 -5 -91 -41 116 -1 -86 -8 111 -92 -27 -79 -29 -9 -7 -77 -59 120 -22 -28 123 -3 -38 -126
right_child=2 6 3 8 5 7 11 14 31 23 63 13 26 16 22 19 56 21 27 -21 119 37 57 -25 90 76 121 71 44 30 49 -33 59 36 43 65 64 89 -40 83 42 -43 53 48 47 -47 54 -49 52 73 -52 70 -54 -55 -56 -57 -58 101 82 -61 66 84 67 -65 -66 92 -68 -69 -70 -71 -72 85 -74 74 -76 117 96 113 -80 -81 -82 -83 -84 -85 108 -87 99 88 -90 104 110 -93 -94 -95 -96 -97 -98 -99 -100 -101 -102 102 -104 -105 -106 -107 -108 -109 -110 -111 -112 -113 -114 -115 -116 -117 -118 -119 -120 -121 -122 -123 -124 -125 125 -127
leaf_value=-0.58351610828482647 -0.58349465417958979 -0.56113446282488622 -0.58350006576870828 -0.56257036060480237 -0.5567124769721733 -0.56713777504459129 -0.5608613559071326 -0.56796101301355639 -0.55660086273441345 -0.56374285180095229 -0.55813157405875746 -0.58346371138441577 -0.55655232244797814 -0.57492158984327779 -0.55662156336068647 -0.58336032748496469 -0.57009643061308835 -0.56674071487967215 -0.57160947189523525 -0.55720299287605835 -0.56375915182647118 -0.56384862785158951 -0.55973664706647852 -0.56134948379204619 -0.56663341689283597 -0.56132425200636826 -0.55882669017535813 -0.56467625397682708 -0.56531066144047359 -0.57614023959124572 -0.56663632378004369 -0.55655867838003081 -0.57124021336487307 -0.58111403912894288 -0.56460627076787107 -0.57441588332288607 -0.57781771003386828 -0.56936440872099014 -0.55641510964126673 -0.55893640944977852 -0.56379461554189847 -0.55781024455633332 -0.56736905155787876 -0.55878332310884149 -0.57272127885423196 -0.57044501906681844 -0.57369726479740513 -0.56764434140339826 -0.56351814757070717 -0.57399140717985853 -0.55664955510066783 -0.56325192891632803 -0.56564021405475817 -0.56429040171280975 -0.57216465816011119 -0.56940654852471551 -0.55705625166458872 -0.56167398932788837 -0.56399253510534397 -0.56743537316800008 -0.56878990563743592 -0.57898776170640665 -0.56624101882884847 -0.55637223214858778 -0.57885445249889833 -0.57114794297685367 -0.56060569189816389 -0.56747110467542217 -0.57733354656120239 -0.56552781877883651 -0.56510324615670915 -0.57355631570821219 -0.56460623835760859 -0.57578572940996353 -0.57375023013183213 -0.58295563904806713 -0.56261397941021085 -0.56251482498460448 -0.56904058801901136 -0.57013776030200936 -0.56760682335682466 -0.57413064711468198 -0.57274748757699623 -0.55794080267972002 -0.57696162351005664 -0.56747635738878932 -0.57396027371079761 -0.5667407116475548 -0.56950198577312861 -0.56423675175614796 -0.56420429342408041 -0.57761909868291517 -0.57738911784000069 -0.57295934792933378 -0.57985960376185497 -0.5725795056065921 -0.56952161351751418 -0.56171048017173864 -0.56394264972969199 -0.57695776836868473 -0.56935066833292236 -0.56104512290003627 -0.5634233630315385 -0.56669520436102672 -0.57003344869228878 -0.56324367847129564 -0.55679574371281593 -0.58267665854282102 -0.57147742968239168 -0.56716621295986946 -0.55944973284439903 -0.5603467179383087 -0.56038608171998294 -0.56389926636871335 -0.57190151442043557 -0.56432415879081343 -0.55895853129967166 -0.57776352882572435 -0.56813558623379701 -0.56102904025766087 -0.55899168577116365 -0.56050636762039763 -0.57041933776009868 -0.56801673183115309 -0.57597179258851727 -0.56836086775730377
leaf_weight=7057.9500708580017 338.14576435089111 7.3681292533874538 445.33576154708862 965.08044672012329 426.55351114273071 7.7353625297546413 45.677451610565186 28.732168197631836 761.38050174713135 7.3675198554992667 338.14548492431641 142.18329524993896 1017.7525205612183 363.56104135513306 144.39340496063232 48.253916263580322 9.2087631225585955 358.03640365600586 1941.9452843666077 19.522576808929443 81.773813724517822 128.92164897918701 28.362484931945801 11.050515174865721 11.050298213958738 1022.172239780426 840.57586908340454 12.523858547210695 26.153046131134033 538.89521026611328 11.052069664001463 6047.5808835029602 81.773862361907959 664.5022406578064 11.418790817260744 222.48370456695557 58.936836719512939 161.33752155303955 1011.1225299835205 808.52953338623047 496.16887903213501 25.047834396362305 406.65895128250122 27.258125782012939 309.78277730941772 1736.0362772941589 538.15848064422607 50.832369804382324 253.79294490814209 177.91329431533813 94.297761917114258 437.96874809265137 1249.4453716278076 129.29102754592896 1593.8542709350586 34.25659704208374 38.308452606201172 8.4725213050842303 11.050515174865724 228.00896310806274 2582.5057992935181 266.31741571426392 689.18379926681519 2098.4940795898438 612.56689119338989 71.45999813079834 10.682045459747313 1693.675621509552 156.18061447143555 491.7479100227356 400.02864694595337 553.63081026077271 11.418865680694578 1776.5544905662537 206.276291847229 13.260618209838865 189.70055389404297 218.80023431777954 25.78453540802002 58.56773042678833 13.628973960876463 53.779173851013184 18.049174785614014 1180.9325332641602 51.200720310211182 12.892267704010008 140.70989322662354 358.03669118881226 155.07556343078613 24.679483413696289 34.993298053741455 418.07786417007446 13.99731922149658 11.787216186523436 701.70912456512451 55.252575874328613 8.1037111282348615 12.155566692352293 148.44525384902954 74.038451671600342 140.70989322662354 452.33442401885986 91.350925445556641 23.574432849884033 15.839071750640867 22.469380855560303 61.882895946502686 770.2193603515625 16.944123268127441 11.418865680694578 641.29823064804077 96.876183032989502 718.28382253646851 725.65045404434204 8.1037111282348615 78.458657741546631 9.9454636573791486 153.9705114364624 14.365669727325438 284.36659049987793 13.628968715667723 119.71391439437866 13.260618209838865 13.99731922149658 82.87886381149292 11.418865680694578
leaf_count=19161 918 20 1209 2620 1158 21 124 78 2067 20 918 386 2763 987 392 131 25 972 5272 53 222 350 77 30 30 2775 2282 34 71 1463 30 16418 222 1804 31 604 160 438 2745 2195 1347 68 1104 74 841 4713 1461 138 689 483 256 1189 3392 351 4327 93 104 23 30 619 7011 723 1871 5697 1663 194 29 4598 424 1335 1086 1503 31 4823 560 36 515 594 70 159 37 146 49 3206 139 35 382 972 421 67 95 1135 38 32 1905 150 22 33 403 201 382 1228 248 64 43 61 168 2091 46 31 1741 263 1950 1970 22 213 27 418 39 772 37 325 36 38 225 31
internal_value=-0.568155 -0.577461 -0.561841 -0.558735 -0.566397 -0.565944 -0.573108 -0.566415 -0.558147 -0.582527 -0.559493 -0.571825 -0.560569 -0.572083 -0.564553 -0.575723 -0.57187 -0.56803 -0.571964 -0.575918 -0.558968 -0.568156 -0.56137 -0.579459 -0.561795 -0.562201 -0.557752 -0.57116 -0.568903 -0.576015 -0.575919 -0.556921 -0.570857 -0.579548 -0.565182 -0.573192 -0.5796 -0.567212 -0.557502 -0.5579 -0.565871 -0.563314 -0.565342 -0.564593 -0.57096 -0.571061 -0.572855 -0.571998 -0.56516 -0.575268 -0.558654 -0.563335 -0.565279 -0.566619 -0.572554 -0.574456 -0.55998 -0.562266 -0.564111 -0.568432 -0.568542 -0.576887 -0.566967 -0.556614 -0.578325 -0.575017 -0.568754 -0.567114 -0.575634 -0.564653 -0.564131 -0.573205 -0.57153 -0.575397 -0.575576 -0.580233 -0.561134 -0.563701 -0.564733 -0.567227 -0.573521 -0.572806 -0.569312 -0.558395 -0.578327 -0.573412 -0.576472 -0.567176 -0.567581 -0.569619 -0.559857 -0.576792 -0.572234 -0.568729 -0.580475 -0.570203 -0.562914 -0.565441 -0.563238 -0.575019 -0.568696 -0.561603 -0.561436 -0.562665 -0.566574 -0.559047 -0.557953 -0.583434 -0.575662 -0.562058 -0.559765 -0.561336 -0.560934 -0.563574 -0.567671 -0.565268 -0.562294 -0.578219 -0.565728 -0.561517 -0.56302 -0.559031 -0.567437 -0.565441 -0.576173 -0.575086
internal_weight=54308.5 21952.2 32356.3 19241.2 13115.1 12777 11806.4 11970.7 18795.8 10145.8 8963.81 7922.12 6527.17 7770.72 5559.15 3884.26 7628.54 6411.51 7568.87 3824.58 806.323 6331.94 916.824 2317.66 4549.13 3764.91 1978.04 4574.92 3537.27 3805.06 3756.81 9832.02 3987.76 2306.61 4642.32 2993.95 2299.24 2794.67 3784.43 2773.31 2144.17 59.6739 1523.87 2498.15 527.478 3677.98 2529.83 360.615 1530.5 2250.62 151.394 1826.65 1503.24 535.95 2132.01 397.818 59.6728 772.431 205.907 309.783 3009.79 1506.18 2537.57 2436.64 765.801 464.122 2593.19 2382.86 378.664 987.917 837.997 587.151 76.2501 2174.37 1982.83 1533.44 1938.26 967.657 154.706 416.604 191.542 64.8312 29.0997 2011.93 334.462 566.523 1171.72 620.303 513.112 257.109 784.218 956.973 85.4573 23.206 1366.21 216.59 197.804 21.3643 176.808 214.748 166.863 566.524 543.685 988.655 40.5186 830.999 79.5637 7828.17 68.1448 57.0963 773.168 131.869 1740.46 944.451 20.6276 107.191 17.6808 167.231 22.8382 379.769 95.4028 960.29 34.6261 21.3654 153.235 94.2977
internal_count=147437 59596 87841 52236 35605 34687 32052 32498 51027 27544 24335 21507 17720 21096 15092 10545 20710 17406 20548 10383 2189 17190 2489 6292 12350 10221 5370 12420 9603 10330 10199 26692 10826 6262 12603 8128 6242 7587 10274 7529 5821 162 4137 6782 1432 9985 6868 979 4155 6110 411 4959 4081 1455 5788 1080 162 2097 559 841 8171 4089 6889 6615 2079 1260 7040 6469 1028 2682 2275 1594 207 5903 5383 4163 5262 2627 420 1131 520 176 79 5462 908 1538 3181 1684 1393 698 2129 2598 232 63 3709 588 537 58 480 583 453 1538 1476 2684 110 2256 216 21252 185 155 2099 358 4725 2564 56 291 48 454 62 1031 259 2607 94 58 416 256
is_linear=0
shrinkage=1


Tree=3
num_leaves=3
num_cat=0
split_feature=37 10
split_gain=88311.4 345.126
threshold=1.0000000180025095e-35 130.50000000000003
decision_type=2 2
left_child=1 -1
right_child=-2 -3
leaf_value=0.19243720626221525 -0.0068479686837568691 0.23386170678395299
leaf_weight=38.121937893331051 5573.6384218893945 131.0082890689373
leaf_count=766 143510 3161
internal_value=-1.08591e-05 0.2249
internal_weight=5742.77 169.13
internal_count=147437 3927
is_linear=0
shrinkage=0.01


Tree=4
num_leaves=127
num_cat=0
split_feature=26 26 26 37 37 26 3 0 26 26 26 9 37 0 12 37 12 12 15 12 3 26 26 26 37 12 35 15 26 6 26 0 35 26 27 35 6 35 0 12 6 7 3 12 12 0 2 6 7 1 16 12 27 1 1 7 16 30 35 2 3 12 12 7 26 7 2 21 16 26 27 3 26 31 3 12 7 30 25 26 26 31 1 1 31 1 35 16 35 26 1 7 35 26 3 35 27 35 3 30 26 0 2 15 33 30 26 7 7 7 35 10 7 0 26 35 12 26 26 35 16 31 11 22 7 25
split_gain=30955.8 4485.08 3971.42 3003.42 484.907 450.294 409.876 349.215 347.394 301.779 287.676 260.855 227.118 221.323 105.888 92.4656 80.753 75.0796 70.121 57.3125 45.2836 43.7809 43.7524 43.5366 40.4168 37.9232 36.6615 35.1728 45.0642 29.2074 27.7931 26.2622 23.4995 18.8708 18.5843 16.5955 16.4168 16.2046 15.7066 16.1571 15.6594 15.6377 15.5371 14.7337 13.3433 12.016 11.3662 11.0287 10.8489 9.89459 9.85924 9.6873 9.45827 9.21258 8.98007 8.91235 8.72186 8.68696 8.35833 8.04199 7.91012 7.90948 7.89475 7.39766 7.15753 11.4716 7.03708 6.92821 6.9037 6.88005 6.46675 6.31629 6.26589 6.25843 5.78645 5.57775 6.77244 5.3759 7.0836 5.3395 5.25426 5.12708 5.036 5.01387 5.01205 4.90766 4.90598 4.83916 5.67358 4.63834 4.61009 4.5785 4.56486 4.54015 4.5383 4.52653 4.60885 5.23051 4.49142 4.43015 4.41219 4.39048 4.37033 4.36587 4.07121 4.0039 3.85915 3.78475 3.64686 4.54614 3.57528 3.43695 3.19448 3.19302 3.18747 3.16883 3.14138 3.13961 3.12563 4.49912 4.2984 3.09059 3.035 3.02199 2.99536 2.91096
threshold=1.2831786178304363 1.4307837651248139 1.1344682700666475 1.0000000180025095e-35 1.0000000180025095e-35 1.0381149765605728 0.14119601328903661 0.89039039039039047 1.3535796957671959 1.5836881759355628 1.2134704202742179 0.932768361581921 1.0000000180025095e-35 0.86425061425061445 0.18587617468214487 1.0000000180025095e-35 0.12687234518220439 0.080816326530612229 0.81517439769866962 0.053063824081523166 0.049390243902439075 1.0957874571486188 1.3222954847172419 1.1765761688698955 1.0000000180025095e-35 0.053063824081523166 0.10887721425203746 0.87577160493827166 1.486596710733004 0.97259759759759767 1.2583791494546646 0.94365079365079374 0.1237859500235738 1.6944589271231609 442.16358337235914 0.090039773852882476 0.69705149501661146 0.22792207792207794 0.97467948717948727 0.080816326530612229 0.94365079365079374 26.500000000000004 0.16843971631205676 0.24080138701598927 0.60120481927710856 0.65058139534883741 66.500000000000014 0.77888888888888907 37.500000000000007 51.500000000000007 4.588989441930619 0.053063824081523166 107.99110945708186 30.500000000000004 48.500000000000007 29.500000000000004 5.0064102564102573 0.44211687856514176 0.057877106532676324 39.500000000000007 0.45244249159989669 0.31838294448913929 1.0000000180025095e-35 30.500000000000004 1.3996846559057723 36.500000000000007 57.500000000000007 1.0000000180025095e-35 5.335341365461848 1.2333412061092743 24.018104083190313 0.21845174973488865 1.3897418814807225 0.59128942063910717 0.20204081632653062 0.35224681421864523 35.500000000000007 0.63897586211621915 0.43188542227003773 1.3064564827801155 1.2020225804073228 0.66650091165257763 41.500000000000007 59.500000000000007 0.66650091165257763 41.500000000000007 0.006754977420397777 2.5042372881355939 0.043997141664485186 1.6236860335532064 23.500000000000004 46.500000000000007 39.500000000000007 1.0705444642127986 0.14119601328903661 0.14341300722623682 156.77081160306167 0.18656568411136179 0.42967032967032975 0.45413750084750687 1.2751954433772619 0.45115856428895962 38.500000000000007 0.91695402298850581 0.0868650244490521 0.63164219357712159 1.3713203597702701 44.500000000000007 19.500000000000004 36.500000000000007 37.500000000000007 20.500000000000004 30.500000000000004 0.53436466698157781 1.3801203889489122 0.04200621061053085 0.69344086021505391 1.0003132832080202 1.3713203597702701 0.022537239671731799 3.010869565217392 0.55910817506193244 13.500000000000002 0.61448900388090377 27.500000000000004 0.18217838872673636
decision_type=2 2 2 2 2 2 2 2 2 2 2 2 2 2 2 2 2 2 2 2 2 2 2 2 2 2 2 2 2 2 2 2 2 2 2 2 2 2 2 2 2 2 2 2 2 2 2 2 2 2 2 2 2 2 2 2 2 2 2 2 2 2 2 2 2 2 2 2 2 2 2 2 2 2 2 2 2 2 2 2 2 2 2 2 2 2 2 2 2 2 2 2 2 2 2 2 2 2 2 2 2 2 2 2 2 2 2 2 2 2 2 2 2 2 2 2 2 2 2 2 2 2 2 2 2 2
left_child=2 6 3 -1 -4 117 20 10 12 11 17 13 -8 24 25 -16 103 -6 26 -7 -2 56 32 36 -3 -10 30 28 52 -15 41 60 49 38 35 43 63 59 39 -11 85 58 -25 66 100 -43 99 -45 -48 79 55 -20 68 -53 72 -44 74 -51 -12 86 73 -61 -13 98 65 83 -17 -65 -26 108 105 116 -37 124 -21 82 -77 78 -39 -18 -52 -67 -62 -27 94 -9 -24 88 -36 123 -29 -56 -73 -76 -38 101 97 -97 -19 -34 -32 -66 -46 112 -75 -30 -90 -103 -28 -110 -54 -87 -14 -79 -83 -72 -71 -5 119 -89 -120 -58 -98 -41 -23 -92
right_child=1 9 4 5 7 19 8 40 14 33 18 62 16 29 15 34 22 23 51 21 -22 31 37 42 27 64 69 90 70 -31 44 -33 46 -35 87 54 84 77 -40 89 -42 45 50 47 102 -47 48 -49 -50 57 80 53 110 -55 91 -57 121 -59 -60 61 75 -63 -64 67 95 81 -68 -69 -70 71 115 92 -74 104 93 76 -78 113 -80 -81 -82 114 -84 -85 -86 111 -88 118 106 -91 125 -93 -94 -95 -96 96 122 -99 -100 -101 -102 107 -104 -105 -106 -107 -108 -109 109 -111 -112 -113 -114 -115 -116 -117 -118 -119 120 -121 -122 -123 -124 -125 -126 -127
leaf_value=-0.011196034373898234 -0.010806149100391382 -0.011198483004870806 -0.01121008195125613 0.016089855285345084 -0.010858786657431636 -0.0098564961113504473 -0.011207744191762159 -0.0058139030719547126 -0.010954215050151662 -0.010926260291582199 0.0052729031360603954 -0.011134070935272314 -0.00024890966527414964 -0.0085200457462865902 -0.011192583243927417 7.916655909340934e-05 0.00063793334524596542 0.0066989016226926199 -0.01090860906344584 0.0051830127891425619 -0.0060430602099295853 0.0093380015588128661 0.0021474302174663727 -0.0032776067692534792 -0.0041791160107995957 -0.0084767228051247021 0.00094836742993548249 -0.00079647946037256397 -0.0048233243787074208 -0.010964777211084244 0.0034251793378709482 -0.0078276010843158685 -0.0048531105166626275 -0.010949296558951507 -0.009066613212895893 -0.00021436453794405484 -0.00025375774644797138 0.0042968422186972152 -0.011097602418877826 -0.0086545074942808217 -0.010449315664037964 0.0042603931001760518 0.0077259144156718983 -0.0015938621317787174 -0.0044511663039118873 0.001576470358488282 0.0053248189812605774 -0.0045242010579321455 0.00012586023552074236 0.0047560874284685827 0.0055833657254407369 0.003325115091917929 -0.004869725405971673 -0.0067214483657229845 0 0.0062772511482444907 0.0050489594812276588 0.0012829872596448087 0.0083434335131321279 -0.0011843823063524838 0.009355762724428127 8.6807946018932391e-05 -0.0093782578246548436 0.0088049961809753101 -0.0012777189761193398 -0.0032389049331440988 -0.0038957778761665291 0.0072500940660659811 -0.002315078528699738 -0.0010721398536197942 -0.0070439956559531685 0.0058864567320969854 -0.0047096307353068365 0.011025730183574894 0.013713700699137363 0.011287102284621812 0.0095086715378362146 0.0030085742704245039 0.00017113056047183387 -0.0017088229334418902 0.0020426584081392517 0.0088035745727189987 0.0032771127617961231 -0.0039951590438160938 -0.0026568484015671344 0.0050029657700102542 -0.0033322121973432192 -0.0043638925451528398 0.0034261989315576996 -0.0095942393078940445 -0.0097529258307859044 -0.004227016095427678 0 0.012392912847033786 0.0061384665120056171 0 -0.0042164020265622187 -0.0077791592318200995 0.0096154331544709426 0.0018086689137310709 0.0023235415421603922 -0.0066787401837413085 0.00045320111160912225 -0.010706831457435877 0.0026649131389686505 0.0020994385342489198 -0.0051273570418125074 -0.0019589290669689342 0.0088504454292059487 0.0049347462827968721 -0.00072623347742884631 -0.0040815730505430895 -0.0086489684453979754 0.0083305287550263663 0.00099593054434007748 -0.0061067855518654362 0.0056396350804558057 0.015236021816989985 0 -0.0015983580249587504 -0.0036612435075463676 0.010678268291853048 0.00073920581289626597 -0.0046270272319889859 0.0049819116606198543 -0.0074656405179071633
leaf_weight=469.27541571855545 434.05307459831238 136.49937614798546 181.7579400241375 6567.3909389078617 21.991417348384857 12.265147686004637 166.19535976648331 43.701683759689331 139.87232935428619 732.09093022346497 428.59695607423782 2053.3021202087402 9.4013309776783007 967.32217788696289 118.04054570198059 46.652173638343811 240.65613695979118 67.496469765901566 26.678605914115906 11.249300479888914 380.28168487548828 25.399859219789505 17.707919865846634 15.567138969898222 429.61170843243599 31.76202192902565 8.7098479270935041 10.856103807687758 186.03981554508209 1048.6898441314697 1134.7544854879379 7.5801277458667746 10.126691102981566 6015.7102661132812 31.38816574215889 52.079690426588058 13.029074817895888 60.142634779214859 1049.738883972168 852.1743950843811 124.02018988132477 2545.0343390703201 690.24115064740181 1755.4675331115723 22.789795786142349 182.90210157632828 283.92804169654846 139.88186123967171 48.138165235519409 74.637742668390274 126.57280951738358 14.127222061157225 946.54148676991463 23.483757019042969 675.46006721258163 1296.8373416364193 13.789925217628477 2495.489713549614 119.36826115846634 694.57447910308838 60.650998085737228 1643.471412062645 335.77690505981445 737.34881418943405 18.445700854063034 15.547831892967222 576.54657578468323 549.45732033252716 392.67528876662254 20.9909348487854 745.01702678203583 632.57218626141548 82.100917816162109 74.447328686714172 650.99571964144707 917.82569214701653 335.23704388737679 34.05948269367218 139.02577945590019 161.0327262878418 68.118679046630859 8.6925790011882782 20.31526580452919 160.12024539709091 9.7709448337554914 8.3322498798370344 133.7767633497715 80.981913387775421 7.2344931066036251 1165.6288299560547 75.05543452501297 26.391700148582458 12.665932416915892 686.70423936843872 50.783398061990738 10.488703459501265 22.055137306451797 36.833905518054962 806.09498110413551 164.39716815948486 573.16417026519775 445.5578690469265 81.816898316144943 60.55696177482605 7.614635318517684 7.9674487709999076 15.545615613460539 19.873759925365448 152.05307760834694 43.509644418954849 23.157245606184006 7.5957306921482077 10.110582977533339 19.591101825237274 15.221628725528717 960.86377161741257 9.7816734015941638 743.03529810905457 31.829348504543304 241.57592302560806 766.41799455881119 122.41242876648903 25.671008408069611 23.490007638931274 64.220667451620102 682.41065341234207
leaf_count=1298 1204 377 502 18043 61 34 459 121 388 2031 1182 5697 26 2681 326 129 665 186 74 31 1053 70 49 43 1189 88 24 30 515 2909 3132 21 28 16689 87 144 36 166 2912 2362 344 7021 1902 4854 63 505 783 387 133 206 349 39 2620 65 1867 3575 38 6892 329 1920 167 4541 931 2031 51 43 1595 1514 1086 58 2064 1744 227 205 1790 2526 923 94 384 445 188 24 56 443 27 23 370 224 20 3232 208 73 35 1889 140 29 61 102 2220 454 1582 1234 226 168 21 22 43 55 419 120 64 21 28 54 42 2661 27 2042 88 668 2120 337 71 65 177 1891
internal_value=2.01698e-05 -0.00627106 0.00924099 0.013537 0.00496872 0.0146621 -0.00172266 0.00524491 -0.00125878 -0.00938002 0.00548456 -0.00805479 0.000319528 -0.00702965 -0.00308265 -0.00245941 0.000624575 0.00741327 0.00406008 0.0114013 -0.00858859 0.0114902 0.000753661 0.00750535 -0.00581576 -0.00612631 0.00417236 -0.00564961 -0.00524091 -0.00979468 0.0038443 0.0102764 0.00149836 -0.0105919 -0.00223043 -0.00184902 0.00849411 -0.00018988 -0.010028 -0.00962089 -0.00840948 0.00439592 0.00649773 -0.00225469 0.0028451 0.00408173 0.00349157 -0.00181239 0.00458097 0.00115726 0.00656929 -0.00628876 -0.00409718 -0.00287223 -0.00062298 0.00678307 0.0127227 0.00138556 0.00595146 -0.000435936 0.0103711 -0.000289651 -0.0108898 0.00865359 -0.00528545 -0.00375312 -0.00359351 0.00814524 -0.00329378 0.00606332 -0.0063173 0.00555533 -0.00299156 0.0082314 0.0129787 0.0106423 0.0108161 0.00221884 0.0014366 -0.000295966 0.00436498 0.00108887 0.00788521 -0.00476467 0.00375503 -0.00408582 -0.00266892 -0.00331609 -0.00629239 -0.00914973 -0.00760672 -0.000164796 0.00576744 0.0130409 0.00479144 -0.00589035 -0.00379243 -0.00601696 0.0093959 0.0013973 0.00305771 -0.00629364 -0.000596349 -0.00933248 0.0102989 -0.00452078 -0.00227172 -0.00648504 0.00771915 0.00800347 -0.00477412 0.000490502 -0.00481809 0.00504307 0.00403174 -0.00651902 0.000998632 0.0160041 -0.00316793 -0.00230538 -0.00351171 0.0101427 -0.00150044 -0.00855152 0.00627689 -0.00770001
internal_weight=53361.8 31719.7 21642.1 10790.4 10851.7 10321.1 12879.1 10670 12064.8 18840.6 10486.3 9001.79 6467.02 6612.71 5597.74 4647.59 6300.82 4453.31 6033 3010.71 814.335 2998.44 6220.76 4431.32 4596.7 950.143 5968.71 4460.2 3691.87 2016.01 5088.43 1513.29 3478.41 9838.83 4529.55 3354.58 2233.98 2742.35 3823.12 2773.38 183.65 3275.9 2197.34 2518.55 1812.53 2727.94 506.59 1895.35 332.066 2971.82 2181.77 64.2896 1791.99 37.611 836.032 1987.08 1485.15 2570.13 547.965 2489.53 1505.71 2338.05 2389.08 2160.4 810.27 231.344 623.199 1286.81 822.287 880.283 1899.89 676.011 134.181 171.682 1348.95 1334.03 1253.06 252.819 199.168 401.689 194.691 39.462 80.9663 191.882 73.5834 59.6297 151.485 1174.97 54.1683 2041.29 768.322 701.852 645.238 1337.7 63.8125 578.926 95.0488 47.3226 873.591 174.524 1707.92 483.877 104.607 80.0689 82.062 194.007 22.7801 465.432 204.273 195.563 969.699 15.928 19.5119 53.6506 23.9142 1705.88 30.7726 7310.43 1120.81 322.558 798.247 136.202 47.7261 875.664 89.6205 757.466
internal_count=147437 87841 59596 29668 29928 28370 35605 29426 33348 52236 28917 24945 17865 18317 15483 12852 17406 12272 16645 8285 2257 8251 17184 12211 12727 2631 16467 12350 10221 5590 14040 4166 9606 27291 12526 9276 6154 7578 10602 7690 509 9037 6057 6965 5003 7526 1398 5241 916 8208 6014 178 4959 104 2311 5477 4085 7098 1511 6880 4145 6461 6628 5951 2243 640 1724 3545 2275 2427 5262 1864 371 473 3710 3672 3449 698 550 1110 537 109 223 531 203 165 419 3250 150 5659 2129 1940 1779 3679 176 1603 263 131 2406 482 4714 1340 289 222 226 537 63 1289 563 539 2684 44 54 148 66 4725 85 20085 3100 892 2208 375 132 2427 247 2099
is_linear=0
shrinkage=0.01


Tree=5
num_leaves=127
num_cat=0
split_feature=26 26 26 37 37 3 26 26 26 26 3 24 6 37 24 3 24 24 26 24 26 24 3 26 16 24 6 34 34 37 26 24 26 26 6 10 34 35 6 24 24 36 6 26 1 7 3 7 16 26 3 6 7 16 26 35 36 1 32 6 1 14 7 30 24 22 3 7 34 31 3 25 30 3 24 7 25 16 34 25 24 3 16 32 30 25 26 34 35 14 34 39 7 3 10 25 35 26 6 25 35 36 19 30 32 16 22 11 6 26 1 34 25 25 36 35 33 6 37 36 6 10 22 25 36 31
split_gain=31067.4 4684.32 4481.89 2762.52 1006.26 409.369 383.627 351.047 303.744 271.336 261.834 255.982 208.741 187.783 103.329 91.363 80.2346 76.0223 74.0723 47.2243 45.8123 45.1176 44.7647 43.4867 33.0884 30.3486 28.9037 27.2578 25.524 25.3274 22.8853 21.2066 19.308 19.2899 18.7231 17.5464 17.3521 16.0759 15.1235 16.5387 14.4587 14.4307 12.9753 12.6586 11.9179 11.5136 11.3094 11.178 11.1419 10.7933 10.2768 9.43523 9.16736 8.90765 8.8689 8.69627 8.6167 8.18233 8.06088 8.04116 7.97715 7.85055 7.72361 7.5006 7.16903 7.07476 6.87431 11.7712 6.80278 6.71212 6.61883 6.58441 6.41698 6.38906 6.0694 6.90979 5.94916 5.93293 5.88088 5.74518 5.54037 5.48987 5.81705 5.39879 5.35228 6.94105 5.01054 4.90449 4.80488 4.7456 4.70757 4.51624 4.9694 4.50475 4.4373 4.40937 4.30301 4.2562 3.88724 3.81383 3.74611 4.45351 3.74512 3.71621 3.55654 3.38526 3.25363 3.24495 3.21759 3.16525 3.1553 3.12562 3.12169 3.08555 3.06837 2.74609 5.26774 2.63603 2.45066 2.29146 2.30352 2.13957 2.07906 2.15343 2.05449 2.00536
threshold=1.2831786178304363 1.1174970191099225 1.4307837651248139 1.0000000180025095e-35 1.0000000180025095e-35 0.14119601328903661 1.1897846997295571 1.3535796957671959 1.5836881759355628 1.0381149765605728 0.10960960960960965 -0.43083168642951242 0.86425061425061445 1.0000000180025095e-35 -0.29544657097288668 0.14119601328903661 -0.51155626780626762 -0.6379030679307548 1.2333412061092743 -0.51155626780626762 1.486596710733004 -0.6379030679307548 0.049390243902439075 1.3222954847172419 7.9777777777777787 -0.37011157161054037 0.97259759759759767 0.25751745122606057 0.22040571199786471 1.0000000180025095e-35 1.1509360943980373 -0.34116726502807693 1.0957874571486188 1.6944589271231609 0.65058139534883741 38.500000000000007 0.17488938053097347 0.22792207792207794 0.97467948717948727 -0.22007424764777705 -0.4938362845138054 857.50000000000011 0.94365079365079374 1.3996846559057723 66.500000000000014 26.500000000000004 0.14119601328903661 37.500000000000007 7.9777777777777787 1.3897418814807225 0.31072796934865904 0.95180023228803723 37.500000000000007 4.8198949644732787 1.2020225804073228 39.500000000000007 562.50000000000011 51.500000000000007 0.54082294911734174 0.53436466698157781 39.500000000000007 0.039305803265194138 36.500000000000007 0.44211687856514176 -0.18716897856242112 0.048512289780071348 0.44274004683840756 34.500000000000007 0.16057652364844818 0.66650091165257763 0.21845174973488865 0.5672359357060851 0.6592959102546484 0.49305421570519009 -0.2378286514480544 40.500000000000007 3.3779761904761911 5.9489884393063592 0.076032349338246444 5.3923076923076936 -0.25530728907232142 0.20204081632653062 4.9931506849315079 0.35896387613476743 0.63897586211621915 0.43188542227003773 1.6236860335532064 0.04280631105713404 39.500000000000007 0.042049663877075052 0.072576844729561288 1.0000000180025095e-35 36.500000000000007 0.51674107142857151 15.500000000000002 9.5857142857142872 0.14341300722623682 1.0705444642127986 0.45115856428895962 1.6464460784313728 0.051546477352928971 776.50000000000011 6.5000000000000009 0.45413750084750687 0.58769452571693048 5.467375886524823 0.018758085381627588 476.00000000000006 0.53436466698157781 1.0003132832080202 41.500000000000007 17.833333333333339 0.26198686371100172 14.225000000000001 306.50000000000006 0.46894290123456794 0.057178513882397926 0.82683658170914553 1.0000000180025095e-35 268.50000000000006 0.94365079365079374 243.50000000000003 0.016170763260023785 4.0571895424836608 899.50000000000011 0.72870250896057354
decision_type=2 2 2 2 2 2 2 2 2 2 2 2 2 2 2 2 2 2 2 2 2 2 2 2 2 2 2 2 2 2 2 2 2 2 2 2 2 2 2 2 2 2 2 2 2 2 2 2 2 2 2 2 2 2 2 2 2 2 2 2 2 2 2 2 2 2 2 2 2 2 2 2 2 2 2 2 2 2 2 2 2 2 2 2 2 2 2 2 2 2 2 2 2 2 2 2 2 2 2 2 2 2 2 2 2 2 2 2 2 2 2 2 2 2 2 2 2 2 2 2 2 2 2 2 2 2
left_child=1 9 4 -4 -2 22 15 16 11 109 51 76 20 -12 19 42 -7 71 36 -9 25 48 -6 28 32 115 121 34 57 -23 59 -22 81 38 40 49 45 60 39 -10 -20 55 122 52 103 53 -34 -46 106 68 69 110 114 -19 -47 58 -36 79 -37 91 78 87 65 -59 -62 -38 67 -43 93 83 117 -15 -54 -48 80 -76 -5 89 -25 -18 -52 -11 97 -32 85 -39 107 -27 -72 -33 -63 102 -93 -16 -70 -64 98 -83 -45 -98 101 -61 -31 -30 -68 -75 -17 -41 -86 -1 -8 113 -107 -51 -21 -13 -117 -29 -84 120 -24 -14 123 -3 -79 -108
right_child=2 6 3 8 5 7 10 14 33 24 13 12 26 17 35 21 23 18 27 43 31 29 119 37 -26 61 -28 70 44 30 50 77 46 -35 56 41 62 84 -40 86 -42 66 -44 96 47 54 73 -49 -50 111 74 -53 72 -55 -56 -57 -58 63 -60 100 64 90 95 -65 -66 -67 104 -69 94 -71 88 -73 -74 105 75 -77 -78 124 -80 -81 -82 82 118 -85 108 -87 -88 -89 -90 -91 -92 92 -94 -95 -96 -97 99 -99 -100 -101 -102 -103 -104 -105 -106 112 125 -109 -110 -111 -112 -113 -114 -115 -116 116 -118 -119 -120 -121 -122 -123 -124 -125 -126 -127
leaf_value=-0.015124573006989262 -0.015292688580945858 0.0069467354407747317 -0.015289105770944573 0.0099597997349795998 0.011312106430370434 0.010082402957712637 0.0071939403662543032 0.011402069459004363 0.011422163376298335 -0.004398213982512637 -0.015268051706008661 0.0080662096405574226 0.0092143996549147195 0.0020320991774205399 0.0034593228122874299 0.0041741973674820788 0.00138157127741642 -0.0066892536454984742 0.0044240203788206102 0.002796755085195017 0.01034454785684356 -0.01515152483672186 0.0043135758124448103 0.004241039484406817 0.0064010218039504798 0.0058220378850843959 0.011472019625872418 0.0034312816323399365 0.005245319390213078 -0.0079612331379420535 0.0015242958134001458 0.0068640445321172926 0.00039696868898407469 0.011464523177523441 -0.0030690129599698288 0.0026447635276192895 -0.0061887683478335943 -0.0035026881618441408 0.011608446359667422 0.0091049797913167613 -0.0029087374164099241 0.0012970781747067501 0.010220193610478538 0.0020055905867724659 -0.0045169399859990916 -0.0054768196135526678 -0.008039171765746686 0.00048722916368449466 0.010416047715471548 0.0045431541924077709 -0.0058353874389946523 0.011375554527458255 0.0027413103816624701 -0.0012346322135068546 -0.0039673016247296026 -0.0091819197317243723 0.00070422020669120319 -0.003734157732936132 0.0008388082712904078 0 0.0018751034148680235 0.004355679630055744 -0.0028789098839165951 -0.000511889887913476 0.00066000668312625997 -0.0090769986767643696 0.0030368849684950117 0.0043324970946324306 0.0025342192791514783 0.0035222934212344997 -0.0053109016176462118 0.011469884078482909 -0.0036772392201256322 -0.010724728865612581 -0.0075344848107131313 -0.0055216381645021261 0.011624375027008547 0.0072730980637096326 -0.00088917912405621152 -0.0019733337749614048 0.0005789108043883699 -0.012815251872757673 -0.014729819825378828 -0.0059082408128975474 -0.0022424311044835651 0.00050859343877482778 0.010092888698959553 0.0046349822248176534 0.00064800029102478687 0.0049286631641685431 0.0013120763407002212 -0.010687130078770127 -0.0074069732482282347 -0.00050684919875334199 -0.00021515586147558994 -0.0091446557126360802 0.0061603934533859218 -0.011552173894908639 0.0067697155492825534 0.0022952538398717062 -0.0086963905520982404 -0.0063032245385152823 -0.0093469091082424658 -0.00094490932179542588 0.0045521327790127497 -0.011645412064638292 -0.0058198883952638837 0.0048380772640589497 -0.0074865510163325613 -0.014299437954104353 0.00096620883431028826 0.0080276867159198625 -0.0052337550609671398 0.0022436517080947909 0.0050622330638981075 0.0011597064160384469 0.0077881834587124471 -0.003731855838066029 -0.0095480454147485478 0.0070324344048323341 0.0090629885775684507 0.0075441946275974659 -0.0022725774097262009 0.00011314231927276977 0.0084545291122654371 0.00052423550408702783
leaf_weight=7084.469755589962 338.48520410060883 7.3566804230213192 445.84232467412949 289.52033090591431 425.26250955462456 79.354932129383087 45.586953699588776 143.95201027393341 759.04289484024048 11.438146144151686 142.31291726231575 388.14211791753769 838.55305308103561 10.67412096261978 748.57398104667664 8.4698192775249499 357.93794658780098 364.16868788003922 26.511769950389862 80.971559584140778 223.72134208679199 46.829193621873856 81.658703207969666 128.79149422049522 10.303547143936155 577.23311397433281 1014.6612873077393 12.51607981324196 9.9390870928764325 532.68230104446411 11.05606749653816 1178.033819437027 9.9464505016803724 6029.0249147415161 81.828181654214859 379.25199899077415 222.83875343203545 61.188632518053055 1008.0160884857178 806.59523785114288 3666.3636118471622 456.86602589488029 24.977766484022141 19.879496306180954 310.16707038879395 538.96749269962311 148.02850264310837 50.828220248222351 12.858201086521147 654.33860352635384 171.20895463228226 94.013387709856033 51.534585058689117 34.280779480934143 1597.0627326965332 7.3656216859817496 228.02715566754341 74.453482270240784 732.38465970754623 13.282215088605879 688.90346783399582 114.45370125770569 71.9061558842659 2519.3772515654564 1693.5216061770916 156.49284592270851 439.47760963439941 180.0187261402607 133.99217411875725 11.41702279448509 555.91323402523994 33.789817005395889 21.737174540758133 575.02832528948784 1780.0348160266876 206.61460316181183 2025.4467005729675 457.41465497016907 25.792585849761963 58.600114166736603 13.642863333225248 663.33095026016235 13.279195278882979 53.861424326896667 34.648930788040161 141.46179059147835 1177.7847061157227 1069.0933354794979 12.889241069555281 159.66861003637314 98.249723672866821 267.01887959241867 68.283876001834869 28.337726533412933 100.880883872509 14.023022532463072 56.652214109897614 698.59971058368683 536.1407299041748 53.364652842283249 74.193445324897766 127.65992286801338 414.6458885371685 156.95782577991486 266.47187793254852 12.918547987937925 11.06634557247162 22.441775679588318 19.921490848064423 772.99246215820312 11.418058186769484 25.760421723127365 28.419817745685577 71.021084308624268 365.37090262770653 20.227042108774185 34.566188484430313 8.1089703440666181 152.88234353065491 283.86255347728729 13.600530385971068 119.4659908413887 13.263431578874586 13.995613902807234 335.26353937387466 7.3733619153499594
leaf_count=19161 918 20 1209 788 1158 216 124 392 2067 31 386 1056 2282 29 2034 23 972 987 72 220 609 127 222 350 28 1569 2763 34 27 1443 30 3204 27 16418 222 1030 604 166 2745 2195 9945 1241 68 54 841 1461 401 138 35 1778 464 256 140 93 4331 20 619 202 1989 36 1871 311 195 6838 4598 424 1194 489 364 31 1507 92 59 1557 4823 560 5516 1244 70 159 37 1795 36 146 94 384 3206 2906 35 434 267 723 185 77 274 38 154 1891 1458 145 201 346 1123 426 724 35 30 61 54 2091 31 70 77 193 993 55 94 22 414 772 37 325 36 38 912 20
internal_value=-1.8616e-05 -0.00918298 0.00622389 0.0093024 0.00171644 0.00216785 -0.00490033 0.00170321 0.00988764 -0.0141548 -0.00363734 0.00855277 0.00755093 -0.00389092 0.00354342 -0.00747248 0.000108551 -0.00367791 -0.00375468 0.00597659 0.00639335 -0.0076639 0.00907297 -1.64331e-05 -0.0111447 0.00538373 0.0102802 -0.00295438 -0.000753293 -0.00777525 -0.00768102 0.00737852 -0.011225 0.0111049 -0.00265674 0.00277658 -0.00497841 0.000915541 0.0105287 0.0101329 -0.00285493 0.0022274 0.00476389 0.00531262 -0.00278182 -0.00464751 -0.00989988 -0.00380423 0.00285854 0.00354127 -0.00703275 0.00938615 0.00412081 -0.00622877 -0.00435031 0.00138302 -0.000284567 -0.000396336 0.00145818 -0.00865033 0.00115774 0.00481742 -0.00677037 -0.00060596 0.00101282 -0.00739444 0.00292833 0.0021614 0.00285711 -0.00333294 -0.00496815 0.00930005 0.000789144 -0.0100379 -0.00716095 -0.00732752 0.0114188 0.00706422 0.00336562 0.000901313 -0.00534561 -0.0118874 -0.0119407 -0.00459522 -0.00146022 -0.000691185 0.0096422 0.00505399 -0.00517033 0.00663644 0.00296772 -0.00896036 -0.0100353 0.00331066 0.0013418 -0.00396448 0.00623565 -0.0121722 0.00660595 0.00432411 -0.00677811 -0.00573073 -0.00857368 -0.000549574 0.00361478 -0.0105089 -0.000717442 0.00899489 -0.00424199 -0.0150443 0.00601047 0.00445736 -0.00737896 0.00432316 0.00466012 0.00774894 0.00541536 0.000458518 -0.010006 0.00654646 0.00504939 0.00901168 0.000686866 0.00266976 0.00777958 -0.00315524
internal_weight=54304.6 22003.1 32301.5 19192.5 13109.1 12770.6 11821.5 11966.2 18746.6 10181.6 7929.69 8943.71 6628.75 7778.68 5554.34 3891.79 6411.85 7636.36 7591.9 1329.6 4656.07 3832.2 804.384 6332.49 2324.18 2301.97 1972.68 4592.16 3538.26 3792.43 3745.6 2354.1 2313.87 9802.91 4002.73 4224.74 2999.74 2794.23 3773.88 2765.86 3692.88 2461.84 59.5935 1185.65 527.892 2534.48 774.342 360.995 39.7677 1762.9 2247.84 151.018 519.614 398.449 2136.03 1119 309.855 3010.37 1111.64 1497.77 2537.01 1859.03 465.261 2593.83 2382.43 379.332 1342.83 636.885 1011.78 76.3345 589.428 44.4639 73.2718 764.395 2171.5 1986.65 2314.97 2130.38 154.584 416.538 184.852 1539.53 1528.09 64.9175 257.221 202.65 2006.82 1646.33 568.802 1337.7 212.703 1282.63 335.303 776.912 234.873 85.9292 666.037 1361.93 556.02 110.017 215.136 140.942 947.328 166.897 705.949 616.367 26.9095 829.037 54.5704 7857.46 57.005 751.12 41.3384 725.36 446.342 442.935 54.7932 20.6251 166.162 379.122 95.2592 958.019 34.6157 21.3523 792.678 18.4397
internal_count=147437 59596 87841 52236 35605 34687 32052 32498 51027 27544 21507 24335 18031 21096 15092 10545 17406 20710 20589 3615 12661 10383 2189 17190 6292 6258 5370 12456 9603 10275 10148 6403 6264 26692 10858 11477 8133 7587 10274 7529 10017 6687 162 3223 1432 6872 2097 979 108 4790 6091 411 1412 1080 5792 3039 841 8171 3019 4057 6889 5053 1261 7040 6469 1028 3648 1730 2749 207 1598 121 199 2070 5884 5383 6304 5794 420 1131 501 4167 4136 176 698 550 5462 4475 1542 3638 578 3474 908 2111 638 233 1811 3686 1512 299 583 382 2566 453 1918 1669 73 2256 148 21252 155 2041 112 1971 1213 1205 149 56 450 1031 259 2607 94 58 2156 50
is_linear=0
shrinkage=0.01


Tree=6
num_leaves=3
num_cat=0
split_feature=37 28
split_gain=70165.1 140.965
threshold=1.0000000180025095e-35 1.0000000180025095e-35
decision_type=2 2
left_child=1 -1
right_child=-2 -3
leaf_value=0.15806887331079686 -0.0068466317081880262 0.18419520400256062
leaf_weight=46.111141204833984 5535.0588364750147 165.09521857649088
leaf_count=766 143510 3161
internal_value=-1.59052e-05 0.178738
internal_weight=5746.27 211.206
internal_count=147437 3927
is_linear=0
shrinkage=0.01


Tree=7
num_leaves=127
num_cat=0
split_feature=26 26 26 37 37 26 3 3 26 26 26 9 37 0 12 37 24 12 9 12 3 26 26 26 37 34 24 9 26 3 26 0 34 26 22 36 0 35 7 0 24 0 3 0 12 2 0 7 6 16 12 14 2 7 35 26 7 16 2 2 7 18 12 9 3 0 3 7 19 16 36 30 22 7 35 16 31 34 25 24 24 7 2 19 30 25 2 34 34 16 31 25 2 26 2 2 3 3 26 35 7 35 22 7 25 33 33 26 30 35 35 16 0 9 36 7 31 36 0 31 36 30 9 26 34 26
split_gain=30134.3 4399.6 3833.33 2929.66 477.245 433.043 401.208 340.117 339.01 297.321 278.774 256.621 224.928 217.678 103.685 92.0609 79.9589 73.2158 68.3932 55.8465 44.5908 43.1169 42.2141 42.1386 40.6639 38.4494 37.7621 34.575 44.1855 28.8281 28.4026 25.5632 25.1517 18.5868 18.2223 17.3981 15.9344 15.8616 15.7822 15.5397 15.9338 15.3917 15.2566 13.4118 11.7509 11.7372 11.1071 11.0631 11.0332 9.62294 9.50568 9.32374 9.08964 8.67484 8.66872 8.48973 11.6432 8.3799 8.14604 7.96436 7.94168 8.90445 7.90513 7.79541 7.59926 7.47027 7.31551 7.23784 8.71437 6.8371 6.37986 7.37392 6.35149 6.24709 9.77218 6.24178 6.14992 5.87993 5.69655 5.5869 5.53807 6.8173 5.59054 5.47724 5.2246 6.88816 5.16304 5.16093 6.81792 5.9789 4.91408 4.88074 5.51095 4.76781 4.72548 4.57032 4.41295 4.38895 4.37348 4.3583 4.34365 4.10785 4.56535 4.18922 4.10303 3.98835 3.95627 3.87049 3.74842 3.53259 3.50702 3.49623 3.37865 3.34564 3.24431 3.3607 3.18941 3.15039 3.09032 3.03473 3.05611 7.22156 3.0143 2.99444 2.99205 2.98956
threshold=1.2831786178304363 1.4307837651248139 1.1344682700666475 1.0000000180025095e-35 1.0000000180025095e-35 1.0381149765605728 0.14119601328903661 0.10960960960960965 1.3535796957671959 1.5836881759355628 1.2134704202742179 0.932768361581921 1.0000000180025095e-35 0.86425061425061445 0.18587617468214487 1.0000000180025095e-35 -0.51155626780626762 0.080816326530612229 0.81517439769866962 0.053063824081523166 0.049390243902439075 1.3222954847172419 1.1765761688698955 1.0957874571486188 1.0000000180025095e-35 0.22040571199786471 -0.51155626780626762 0.87577160493827166 1.486596710733004 0.027402402402402385 1.2583791494546646 0.94365079365079374 0.22040571199786471 1.6944589271231609 0.020051746442429491 702.00000000000011 0.69705149501661146 0.22792207792207794 26.500000000000004 0.97467948717948727 -0.22007424764777705 0.94365079365079374 0.16843971631205676 0.74754901960784326 0.26695402298850585 66.500000000000014 0.77888888888888907 37.500000000000007 0.65058139534883741 4.588989441930619 0.053063824081523166 0.009260529565098095 30.500000000000004 29.500000000000004 0.057877106532676324 1.3996846559057723 36.500000000000007 5.0064102564102573 51.500000000000007 39.500000000000007 48.500000000000007 1.0000000180025095e-35 0.31838294448913929 0.99371069182389948 0.45244249159989669 0.74754901960784326 0.21845174973488865 30.500000000000004 6.5000000000000009 5.335341365461848 1014.5000000000001 0.6592959102546484 0.39521345407498126 32.500000000000007 39.500000000000007 3.5044642857142865 0.59128942063910717 0.076032349338246444 5.3923076923076936 0.66690578670492606 -0.46574492938303064 35.500000000000007 41.500000000000007 8.5000000000000018 0.63897586211621915 0.43188542227003773 40.500000000000007 0.71779859484777531 17.833333333333339 2.5042372881355939 0.66650091165257763 0.6802061855670104 41.500000000000007 1.6236860335532064 59.500000000000007 23.500000000000004 0.14119601328903661 0.42967032967032975 1.0705444642127986 0.011187620011784374 32.500000000000007 0.14341300722623682 0.10284605433375126 46.500000000000007 4.4494949494949507 0.0868650244490521 0.063533662798610904 1.4091054374987897 0.45413750084750687 37.500000000000007 0.043997141664485186 3.010869565217392 0.45115856428895962 0.91695402298850581 129.50000000000003 26.500000000000004 0.71910819782226232 899.50000000000011 0.53436466698157781 0.55910817506193244 1098.5000000000002 0.65721923340824007 0.28730158730158734 1.0003132832080202 0.12451038330974011 1.3622866246617107
decision_type=2 2 2 2 2 2 2 2 2 2 2 2 2 2 2 2 2 2 2 2 2 2 2 2 2 2 2 2 2 2 2 2 2 2 2 2 2 2 2 2 2 2 2 2 2 2 2 2 2 2 2 2 2 2 2 2 2 2 2 2 2 2 2 2 2 2 2 2 2 2 2 2 2 2 2 2 2 2 2 2 2 2 2 2 2 2 2 2 2 2 2 2 2 2 2 2 2 2 2 2 2 2 2 2 2 2 2 2 2 2 2 2 2 2 2 2 2 2 2 2 2 2 2 2 2 2
left_child=2 6 3 -1 -4 123 20 41 12 11 17 13 -8 24 26 -16 113 -9 25 -7 -2 32 36 57 -3 30 -10 28 51 -15 38 64 58 39 87 60 67 59 54 40 -11 91 -24 104 99 108 -46 -47 -40 53 -20 109 -52 -44 -12 56 94 79 78 77 61 -36 -61 -13 76 -60 122 97 -69 -53 -58 -72 117 74 -68 -75 124 -23 -18 98 82 -82 -66 -51 85 -39 -45 89 125 110 96 -6 -93 -42 -28 -29 -38 -19 -21 -37 -90 103 -103 112 -32 -78 -74 -104 -34 -26 -17 -91 -57 -14 115 -97 -62 -30 -86 -59 -121 -122 -27 -5 -25 -89
right_child=1 9 4 5 7 19 8 10 14 33 18 63 16 29 15 34 21 22 50 23 -22 37 42 31 27 66 55 95 72 -31 43 -33 45 -35 35 44 90 84 48 -41 93 -43 49 86 46 47 -48 -49 -50 83 52 69 -54 -55 -56 101 70 119 65 62 116 -63 -64 -65 80 -67 73 68 -70 -71 71 -73 106 75 -76 -77 105 -79 -80 -81 81 -83 -84 -85 118 -87 -88 88 100 111 -92 92 -94 -95 -96 114 -98 -99 -100 -101 -102 102 107 -105 -106 -107 -108 -109 -110 -111 -112 -113 -114 -115 -116 -117 -118 -119 -120 120 121 -123 -124 -125 -126 -127
leaf_value=-0.011151425395848352 -0.010712441657316408 -0.011156501890214443 -0.011167721273846241 0.015803691272765485 -0.010519348369327957 -0.0097946947055560993 -0.011165991879313164 -0.010774602438233557 -0.010797653123275717 -0.010809336985600406 0.0052011852741423127 -0.009289202384042846 -0.0050826961420239024 -0.010871079668453916 -0.011150990721906302 -0.00900750025116079 -0.00066138583251451198 0.0065912688489316055 -0.010816904972655963 0.013489189644883312 -0.0059782670231255941 -0.0035427213688955079 -0.0032837720195284491 0.0051885258836283712 -0.0048156049434717662 0.0055156595841441411 -0.0082541909122183753 -0.00074671760843251188 -0.0060569921018098077 -0.0084376872213442478 0.0026860776497273663 -0.0077665790030353368 -0.0045701506894524797 -0.010853761259091894 -0.00051609248672316655 0.00022262155822595189 -0.00025051342888532136 0.0042379567438764068 0.0042074912773789235 -0.011003705813167326 -0.0084294073332127784 -0.010355876594873133 0.0076121788304860886 -0.0059514511723043409 -0.0015246611554024674 0.0052534749328578944 -0.0048966236404379259 0.00011458343806205539 0.0017157649826343663 0.0034990900700040605 0.003307232559970967 -0.004131249208614126 -0.0066735263488558365 0.0061842932745119128 0.0082780535344642459 -0.0021297019043972493 0.006391666880246445 0.0049420496447777212 0.001373226033699675 -0.0011806886961337709 -0.0065632911975539859 -0.0034346809802656992 8.8529986470433015e-05 -0.011037324188212919 0.0093330326207799619 -0.0069233431864989805 0.0071824806054373606 0.007218770233152109 0.0089283363523951446 -0.0022751062199503915 -0.0068344534678448947 0.0047287234127871289 -0.004767397193898096 0.0071808814151625997 -0.0017320454896260521 0.0039716871012537795 0.010873195274316443 0.0016464343738685008 0.0027196437300210986 0.0059197680305018464 0.011118572802125524 0.0093385000001821854 0.0031504516481908472 0.0080938720225242154 0.002969557769483492 0.00017119232237968336 0.00010749900985175217 0.0056662142617309166 -0.0075633691072521615 -0.00040003809447656738 -0.0026508741605274322 -0.0046949956383815416 0.0026430332165425876 -0.0094947920018378495 -0.0037800857778849855 -0.0031509999967498205 0.0060487997065457547 0.0094714955697913182 0.012192084657272619 -0.0035506946895460943 0 -0.0021123967319967673 -0.0012496900101597196 -0.00045543921623343304 0.0038509725451484002 0.0026035129935105153 0.0021150628185455391 -0.0088960780107998488 0.0016723168660269234 -0.00069531055815736254 -0.003054872473988667 -0.0034344078586727765 -0.0065760492300155227 -0.010616768861777471 -0.0079411281293180532 -0.0070393420289788346 0.00023254434602971018 -0.0069991684191510811 0.0082041584949579423 0.01217584924275074 0.010708455515134049 0.002440548463542067 -0.001144943617534877 0.014968646138420418 0.010242966656586605 -0.00017514132956409677
leaf_weight=468.38793855905533 432.22941732406616 136.26312586665154 181.44046485424042 6600.6646672785282 9.7357785403728467 12.232717871665953 165.90955984592438 21.909521728754044 143.9480904340744 747.24065637588501 429.3224860727787 334.53633117675781 17.292148143053055 1044.2462348937988 117.83839803934097 31.312420815229416 351.60075902938843 67.660586088895798 26.567370235919952 652.39771470427513 379.40595817565918 126.34344911575317 15.569781810045241 73.45727550983429 944.80755141377449 9.8109665215015429 29.884107887744904 10.842448174953459 999.57485979795456 964.14856719970703 1345.8832497298717 7.5616353154182425 9.747079521417616 5989.7314147949219 1162.9879873394966 30.361963272094727 13.027755439281462 60.229751259088516 2558.7732172012329 1045.2497539520264 836.86051893234253 123.50929945707321 691.96807092428207 18.067756354808807 1167.285306930542 305.48988720774651 107.54853442311287 49.947984129190445 196.0817164182663 162.33278355002403 14.133649289608 428.9366549551487 23.442530691623688 1299.5962770879269 123.99620482325554 20.23996239900589 15.580262541770933 13.825136303901671 2539.6739510297775 697.12856569886208 33.578825563192368 115.24653220176697 1643.3918259441853 2044.2215576171875 61.926104992628098 10.489580094814299 504.67645141482353 689.19814282655716 601.12057942152023 392.19445022940636 12.64250957965851 9.0755837261676771 185.68748170137405 96.330703496932983 11.943859577178953 191.82833701372147 74.67825186252594 25.33870792388916 57.626693218946457 14.186392307281492 919.31401601433754 335.59774762392044 21.806886464357376 32.683925479650497 34.093412905931473 139.02553629875183 56.116364151239395 9.7753060460090619 20.925339251756668 41.932305634021759 9.7689575552940351 36.398477494716644 13.400318324565886 1178.8779830932617 154.83569446206093 34.255947142839432 50.888496071100235 808.52216571569443 688.00628066062927 727.3673928976059 11.559888452291487 61.032325774431229 10.452910155057905 13.355904102325438 415.02445238828659 7.6268422901630393 7.9640527367591849 24.865927219390869 154.34962311387062 23.13631534576416 17.698126047849655 979.23813048005104 452.02249473333359 60.312584519386292 626.30650287866592 94.664453715085983 7.593947857618331 701.94350665807724 19.645789980888367 64.533452689647675 42.646441400051117 15.649305731058119 19.175643801689148 746.62690615653992 16.373472511768341 61.067008912563324
leaf_count=1298 1204 377 502 18043 27 34 459 61 401 2082 1182 931 48 2909 326 87 972 186 74 1786 1053 350 43 202 2620 27 83 30 2775 2681 3711 21 27 16689 3216 84 36 166 7049 2912 2327 344 1902 50 3230 841 298 138 541 447 39 1189 65 3575 341 56 43 38 7011 1928 93 319 4541 5697 170 29 1388 1894 1651 1086 35 25 515 265 33 528 205 70 159 39 2521 921 60 90 94 384 155 27 58 116 27 101 37 3281 429 95 140 2220 1885 2015 32 169 29 37 1144 21 22 69 426 64 49 2712 1255 168 1741 263 21 1950 54 177 117 43 53 2042 45 169
internal_value=1.99658e-05 -0.0062049 0.00909386 0.0133025 0.00489722 0.0144077 -0.0017013 0.00517051 -0.00124285 -0.00929249 0.00540622 -0.00797535 0.0003157 -0.00695781 -0.00304614 -0.00242948 0.000618979 0.00730209 0.00400443 0.0112152 -0.00850613 0.00074541 0.00739265 0.0113025 -0.00575328 0.00411505 -0.00606185 -0.00558642 -0.00518093 -0.00970584 0.00379013 0.0101132 0.00148481 -0.0104982 -0.002201 -0.00182322 0.00836484 -0.000190579 0.00434542 -0.00993747 -0.00953188 -0.00832759 0.00640129 0.00278693 -0.00240457 0.00351636 -0.00181257 0.00454047 0.00403143 0.00647207 -0.00622766 -0.00404768 -0.00284377 0.00668299 0.00590023 -0.0052065 -0.00350035 0.0125092 0.00112683 -0.000433853 -0.000925016 -0.000782325 -0.000288331 -0.0107939 0.0102062 0.00133711 0.00611368 0.00852165 0.00801942 -0.00324951 0.00152615 -0.00186757 -0.00624835 0.00629223 0.00696969 0.00506126 0.0081095 -0.00265459 -0.000176306 0.0127597 0.0104717 0.0106473 0.00777558 0.00429576 0.0021917 0.00142003 -0.00134593 -0.00327678 -0.0010958 -0.00348419 0.00369802 -0.00403878 -0.00265653 -0.00905529 -0.00453233 -0.00752986 0.00472295 0.00925483 0.0128285 -0.00339551 -0.00487706 -0.0058501 -0.00385794 -0.00623656 0.00296294 0.0101554 -0.00446605 -0.00674688 0.00127561 -0.00472046 -0.00695046 -0.0033129 -0.00639331 -0.00944648 -0.00762294 -0.00603909 -0.00524491 -0.00644861 0.00497364 0.00998161 0.0105111 0.00856402 0.00104041 0.0157199 0.00617411 0.000609215
internal_weight=53349.6 31642.2 21707.4 10837.5 10869.9 10369.1 12870.5 10688.5 12058.9 18771.7 10505.4 8973.73 6467.64 6594.97 5591.25 4643.32 6301.73 4464.25 6041.17 3021.82 811.635 6224.12 4442.34 3009.59 4586.58 5977.03 947.936 4450.31 3684.24 2008.39 5143.27 1518.34 3478.93 9797.96 4525.48 3351.97 2240.19 2745.2 3308.17 3808.23 2762.98 183.044 2202.15 1835.09 2032.56 519.535 1274.83 355.438 2754.85 2186.58 64.1436 1789.07 37.5762 1991.56 553.319 803.988 222.018 1491.24 2959.39 2492.2 1319.41 1278.23 2340.52 2378.76 1510.78 2550.16 833.766 2166.5 1290.32 821.131 37.2984 21.7181 1895.17 804.779 516.62 288.159 172.136 151.682 409.227 1354.59 1338.64 1254.91 83.733 195.017 252.994 199.255 74.1841 1173.51 103.328 1070.18 73.6852 59.5346 49.7988 2015.74 184.72 766.069 63.9163 876.183 1340.4 757.729 32.4852 581.97 96.3512 485.618 1760.91 82.3051 193.652 35.3188 164.097 967.944 49.0105 1021.17 472.262 77.6047 755.227 128.92 41.1728 1701.52 53.7392 136.654 122.829 58.2957 28.9866 7347.29 89.8307 70.8423
internal_count=147437 87841 59596 29668 29928 28370 35605 29426 33348 52236 28917 24945 17865 18317 15483 12852 17406 12272 16645 8285 2257 17190 12211 8251 12727 16467 2631 12350 10221 5590 14173 4166 9603 27291 12526 9276 6154 7587 9113 10602 7690 509 6057 5060 5627 1432 3528 979 7590 6014 178 4959 104 5477 1523 2230 615 4085 8171 6889 3649 3535 6469 6628 4145 7040 2294 5951 3545 2275 103 60 5262 2214 1421 793 473 420 1131 3710 3672 3442 230 537 698 550 205 3250 286 2964 203 165 138 5608 512 2129 176 2406 3671 2099 90 1615 267 1348 4855 226 537 98 453 2684 136 2828 1311 216 2099 358 114 4725 148 375 337 160 80 20085 247 196
is_linear=0
shrinkage=0.01


Tree=8
num_leaves=127
num_cat=0
split_feature=26 26 26 37 37 3 26 26 26 15 26 6 0 37 9 3 12 24 26 12 3 26 12 12 9 26 3 34 37 34 26 26 0 3 36 34 26 35 0 12 26 27 0 24 26 2 7 6 7 16 3 0 27 12 16 26 1 36 11 1 39 2 12 12 26 7 3 30 7 12 24 7 16 3 35 16 27 34 24 30 27 30 2 32 7 26 35 26 23 6 0 6 1 30 19 1 33 27 30 26 35 35 30 35 27 23 27 0 36 7 1 26 36 30 24 30 32 23 0 37 7 36 0 19 11 11
split_gain=30248.5 4537.65 4388.05 2705.96 984.176 400.236 372.205 342.444 298.507 266.721 262.271 255.338 216.17 184.015 106.116 88.7454 82.2451 78.4148 70.5675 67.6497 43.9661 42.3619 37.4259 36.8696 33.8003 43.2396 28.427 26.511 25.911 24.8558 21.6937 18.985 18.6139 18.5495 17.97 17.0905 16.0802 15.6688 14.8801 16.3241 14.333 13.4718 12.7049 11.969 11.69 11.6032 11.2014 10.9162 10.8761 10.4907 9.96553 9.26604 8.97626 8.78013 8.71415 8.57039 8.56629 8.45439 7.9959 7.9621 7.79003 7.77995 7.73267 7.66225 7.5393 8.87111 7.53701 7.29167 7.18672 7.15688 6.67386 6.77137 6.66159 6.50831 6.17554 6.17235 6.12982 5.8209 5.3266 5.2085 6.77047 5.11822 5.08151 5.07595 4.84779 4.74747 4.71726 4.67877 4.59353 8.17552 4.49663 4.47861 4.42439 4.29577 4.2256 4.15072 4.09144 4.0041 3.9325 3.86632 3.67355 3.65655 3.62357 3.42035 3.24226 3.20138 3.14431 3.12163 3.11546 3.23464 3.07237 3.0663 3.03532 2.99909 2.79456 2.65713 2.64623 2.64587 2.59152 2.5894 2.53193 2.27 2.28522 2.25072 2.12588 2.04836
threshold=1.2831786178304363 1.1174970191099225 1.4307837651248139 1.0000000180025095e-35 1.0000000180025095e-35 0.14119601328903661 1.1897846997295571 1.3535796957671959 1.5836881759355628 0.932768361581921 1.0381149765605728 0.89039039039039047 0.86425061425061445 1.0000000180025095e-35 0.81517439769866962 0.14119601328903661 0.12687234518220439 -0.51155626780626762 1.2333412061092743 0.080816326530612229 0.049390243902439075 1.3222954847172419 0.053063824081523166 0.053063824081523166 0.87577160493827166 1.486596710733004 0.027402402402402385 0.25751745122606057 1.0000000180025095e-35 0.22040571199786471 1.1509360943980373 1.6944589271231609 0.65058139534883741 0.070598006644518277 857.50000000000011 0.17488938053097347 1.0957874571486188 0.22792207792207794 0.97467948717948727 0.080816326530612229 1.3713203597702701 211.31974343261828 0.94365079365079374 -0.22007424764777705 1.2583791494546646 66.500000000000014 26.500000000000004 0.77888888888888907 37.500000000000007 4.0057142857142862 0.31072796934865904 0.95180023228803723 107.99110945708186 0.053063824081523166 4.8198949644732787 1.2020225804073228 28.500000000000004 562.50000000000011 7.5000000000000009 51.500000000000007 1.0000000180025095e-35 39.500000000000007 0.31838294448913929 1.0000000180025095e-35 1.3996846559057723 36.500000000000007 0.49305421570519009 0.44211687856514176 36.500000000000007 0.44476557482337836 -0.2378286514480544 40.500000000000007 5.335341365461848 0.21845174973488865 0.010227848880177271 4.9931506849315079 24.018104083190313 0.076032349338246444 -0.25530728907232142 0.63897586211621915 49.754845526368662 0.63627404590627068 59.500000000000007 0.33300524934383208 36.500000000000007 1.6236860335532064 39.500000000000007 1.3064564827801155 0.52198067627630451 0.54201977401129953 0.53436466698157781 0.45115856428895962 23.500000000000004 0.65509763877459171 6.5000000000000009 47.500000000000007 0.022306317580281971 231.45513577053447 0.63164219357712159 1.0705444642127986 0.051546477352928971 0.14341300722623682 0.45413750084750687 37.500000000000007 14.897559476752223 0.91695402289681038 976.20526142163146 0.53436466698157781 129.50000000000003 26.500000000000004 41.500000000000007 1.0003132832080202 899.50000000000011 0.53104088662623872 -0.29544657097288668 0.67029020267918149 0.64654019615574876 0.45748709117628233 0.82683658170914553 1.0000000180025095e-35 30.500000000000004 268.50000000000006 0.94365079365079374 7.5000000000000009 243.50000000000003 13.500000000000002
decision_type=2 2 2 2 2 2 2 2 2 2 2 2 2 2 2 2 2 2 2 2 2 2 2 2 2 2 2 2 2 2 2 2 2 2 2 2 2 2 2 2 2 2 2 2 2 2 2 2 2 2 2 2 2 2 2 2 2 2 2 2 2 2 2 2 2 2 2 2 2 2 2 2 2 2 2 2 2 2 2 2 2 2 2 2 2 2 2 2 2 2 2 2 2 2 2 2 2 2 2 2 2 2 2 2 2 2 2 2 2 2 2 2 2 2 2 2 2 2 2 2 2 2 2 2 2 2
left_child=1 10 4 -4 -2 20 15 17 9 12 111 13 24 -8 34 42 53 105 35 -17 -6 29 -12 -16 25 52 -14 32 -21 59 60 38 44 -24 40 46 75 61 39 -10 88 49 125 74 -20 102 54 58 -47 -42 81 110 72 -15 -18 -48 -55 -34 -45 87 90 77 -63 -11 65 82 -38 -61 69 -37 78 -72 -5 118 95 99 98 -23 -52 80 -39 83 -25 -32 115 104 -75 -19 113 -90 94 123 -26 -67 -30 -36 -43 -86 -27 -35 -92 -93 -31 -54 -41 120 -70 -81 109 -94 -13 -1 -78 -9 -76 -62 -68 -49 -29 -77 -7 122 -22 -66 -28 -3
right_child=2 6 3 8 5 7 11 14 31 63 22 51 26 16 23 19 18 21 27 28 121 37 33 64 92 76 124 73 30 45 50 -33 57 36 43 68 66 79 -40 85 41 96 -44 47 -46 48 55 117 -50 -51 70 -53 103 56 -56 -57 -58 -59 -60 67 84 62 -64 -65 91 93 116 -69 106 -71 71 -73 -74 86 114 119 112 -79 -80 107 -82 -83 -84 -85 97 -87 -88 -89 89 -91 100 101 108 -95 -96 -97 -98 -99 -100 -101 -102 -103 -104 -105 -106 -107 -108 -109 -110 -111 -112 -113 -114 -115 -116 -117 -118 -119 -120 -121 -122 -123 -124 -125 -126 -127
leaf_value=-0.014879748685398998 -0.015102205940871239 0.0026447620908806565 -0.015096387945009834 0.0047801450388402873 0.011203143162953811 0.00089462320649318506 -0.015082586930051411 3.3373616288950849e-05 0.0113345763119986 0.011538250874667375 0.0080576209612972568 0.0071148142705745286 0.011361998402397379 0.011369760016039733 0.011360542682055086 0.011240945338714829 -0.0065957216336128008 4.1002198849096057e-06 -0.0033742864260261456 -0.014973976240239259 0.0042507063691899216 0.0041980722829067837 0.0043553841191274825 0.0089703679425274796 0.0014369284594275603 0.0054023760169534182 0.0091205052557820701 0.0034086198389562928 -0.0077523784184715793 0.0051863073872347289 0.0027055298415692396 0.011354584438120598 -0.0030325916556697414 -0.012563503366758105 0.003471513583198534 -0.0014757549934489853 -0.0077877228771843611 -0.003479605313064254 0.011497642296976996 0.0047811185416097059 0.0059074760295985242 0.0048192037952405906 0.010117762394067071 0.004635361437503792 -0.0022365733079562546 -0.0044529429612364512 -0.0053956810555703732 0.0020063465623456371 0.00048231824011196343 0.0016582141894657743 -0.0056497260814112491 0.011268354063330188 0.0054429769785100017 -0.0040521434506718638 -0.0012019320426381571 -0.0039121116180902511 0.0077030477194630475 0.00070407340791665016 0.0023235698400394613 -0.0036787833033335837 -0.010769122044625781 0.0018783450359723198 0.00062763758223598198 0.0098033721789108855 -0.0015292933195281441 0.0024869256739221651 -0.01054738338025589 -0.00050316632913861392 -0.002843956364740999 -0.0076268545184235608 -0.0074228323425111643 -0.0054316930004029177 0.0029567565365009973 -0.0052618264352428095 0.005513680265836333 -0.014545350210264738 0.0066625305501832859 -0.00090701127544906286 0.00062365723275754567 -0.0022103635131740101 0.00049452570394372493 0.0026868102231598096 0.0042212527823567566 -0.0054443097349261725 -0.0026214211701531659 0.010002232991284329 0.0006411472491186966 0.0021745477648645282 0.0013545702040137187 -0.0013875520962751474 -0.0056390321900374168 0.0069313267254563016 0.0038050917112341892 -0.0044267997855724868 -0.0091972774866341516 -0.0048435943728951996 0.0031184081508792904 -0.0086646262263262944 -0.00138217104884093 -0.011355584708200058 -0.0085732801309373104 0.0045829852359328439 -0.00092992574250787502 0.0013877660581271204 0.0090436884112366622 0.011128178239898312 -0.0076086032814237569 -0.0073751847254078153 0.0085112750796857897 0.00762397539792553 0.00096282963905883559 -0.01406774756263927 0.0075888397073450341 0.0038543749837055569 0.0041499697310378725 -0.0054098379326019685 -0.0066561010243859934 0.0060089915770084462 -0.00369225500737847 -0.0092906234697884543 0.0090132953201325656 0.006958118578316708 0.0089834469148020648 0.0049797339920887264 0.0074553154938939107 -0.0022612157353543967
leaf_weight=7107.6371969282627 339.4209913611412 21.340523600578308 447.08495172858238 436.93246203660965 423.8756140768528 7.7179370820522335 142.69802191853523 30.17629599571228 739.71331429481506 2084.8709297180176 9.9082843065261823 45.494066268205643 1011.3056259155273 34.053777933120728 140.19547891616821 18.686929732561111 364.73086795210838 247.84179162979126 1945.205180555582 48.433012992143631 81.539103478193283 128.66437414288521 7.3602913022041312 28.610487133264542 11.034363299608229 189.17123448848724 836.39629191160202 12.509616851806642 541.12300071120262 9.9251186549663526 8.1115260124206525 6009.0910441875458 81.882589340209961 668.57132968306541 11.403996288776399 21.431776195764542 153.85942286252975 60.499865174293518 1004.6390190124512 22.411434173583984 62.88854905962944 273.91987988352776 24.903604209423065 174.97177565097809 1738.4089148044586 310.51420143246651 539.71074777841568 22.055869609117508 50.823137074708939 849.02069297432899 179.2318514585495 93.710964381694794 962.31882271170616 9.2107478082180041 34.302084743976593 1597.2069511413574 16.524752050638199 228.02591681480408 1200.0099458694458 74.527901738882065 254.6986149251461 709.57485702633858 1672.3028526604176 336.30976104736328 10.302306085824968 20.97219917178154 591.55155819654465 2519.808215200901 66.439555287361145 358.54849773645401 1783.2380635738373 206.9287371635437 399.37086552381516 555.16370144486427 218.25335901975632 13.315480619668959 1018.4732822477818 25.783491522073746 13.65493720769882 34.669794678688049 142.19230100512505 11.420994430780409 148.08817806839943 56.883019417524338 16.262093245983124 1156.8168258666992 12.887397795915602 168.60815811157227 357.73574495315552 155.0109800696373 141.15921738743782 449.91870433092117 34.892932265996933 15.121845930814741 419.98129627108574 11.782763302326201 336.06733193993568 52.151408731937408 8.1043391823768598 705.6234835088253 74.337516933679581 90.771988391876221 157.00351825356483 23.548220694065094 838.93852496147156 61.510437667369843 19.214035421609879 19.958246260881424 638.4084170460701 96.473914921283722 11.417095094919203 775.430419921875 715.39352098107338 76.875472366809845 724.24533134698868 12.9582442343235 24.428603887557983 131.21122214198112 8.1149525940418226 155.44258078932762 9.9016454517841321 283.33114436268806 13.570808410644529 9.5656721889972669 119.19080144166946 13.266129195690153
leaf_count=19161 918 58 1209 1189 1158 21 386 82 2021 5697 27 124 2763 93 383 51 987 673 5271 131 222 350 20 78 30 515 2282 34 1463 27 22 16418 222 1804 31 58 416 164 2745 61 171 745 68 476 4713 841 1461 60 138 2307 485 256 2620 25 93 4327 45 619 3262 202 688 1928 4541 918 28 57 1598 6838 180 970 4823 560 1086 1503 594 36 2775 70 37 94 386 31 403 154 44 3158 35 458 972 421 382 1226 95 41 1135 32 914 141 22 1905 201 247 426 64 2289 168 52 54 1741 263 31 2091 1950 209 1970 35 66 357 22 420 27 772 37 26 325 36
internal_value=-1.78803e-05 -0.00904422 0.00615443 0.00920663 0.00169533 0.00214262 -0.00482953 0.00168355 0.00978826 0.0084636 -0.0139279 -0.00358566 0.00740639 -0.00383552 0.00350231 -0.00736047 -0.00362457 0.000108928 -0.00371705 -0.00754866 0.00897953 -1.4448e-05 -0.0109719 0.00661967 0.00620288 0.00580514 0.0101779 -0.00293434 -0.00764222 -0.000741555 -0.00754611 0.0109972 -0.0026403 -0.0110555 0.00288693 -0.00491052 -0.0111064 0.000905574 0.0104247 0.0100316 0.00221058 0.00273361 0.00470759 0.00346621 -0.00283841 -0.00274257 -0.00458219 0.00290835 -0.00375066 0.00195639 -0.00691539 0.00929252 0.00469328 0.00801569 -0.00614082 -0.00428892 0.00338242 -0.000275518 0.00262088 -0.000389226 -0.00848467 0.0011448 0.00100168 0.0112998 0.00575229 0.00409847 -0.00988604 -0.000595964 -0.00668815 -0.00728924 -0.00704105 -0.00721816 0.00391436 -0.0049216 0.00434477 -0.0117113 0.00685181 0.00332634 -0.00518981 -0.00143932 -0.000680289 -0.00327277 0.00502106 -0.00437348 -0.00988412 0.00955089 -0.00512236 0.000890981 0.000920761 0.000519412 -0.00807998 0.00637221 0.00810798 -0.00033981 -0.00838956 -0.00063412 0.00388907 -0.00728951 0.0051068 -0.0119481 -0.00667564 0.00654539 -0.00053968 0.00534961 0.00893797 0.00998314 -0.0039705 -0.00418191 0.00819912 0.00664339 0.00594461 -0.0148008 0.0070477 0.00280834 0.0044706 -0.0105272 -0.0104012 0.00545757 0.000458455 -0.00974806 0.00569899 0.00647414 0.00498357 0.00148326 0.00891835 0.000674888
internal_weight=54292.4 22048.8 32243.6 19140.9 13102.7 12763.3 11835.7 11961 18693.8 8922.2 10213.1 7936.89 6501.02 7786.27 5549.18 3898.77 7643.57 6411.83 7583.78 3839.26 802.317 6332.7 2330.06 913.547 4534.12 3753.31 1966.89 4582.2 3820.57 3539.05 3772.14 9771.61 3993.52 2320.15 4635.63 3001.58 2312.79 2793.65 3762.52 2757.88 2141.69 1521.9 59.5103 2493.93 3683.61 528.266 2535.95 1528.25 361.337 911.909 2259.47 150.622 1822.17 59.7893 399.033 2136.92 25.7355 309.909 1374.98 3010.79 1512.67 2536.33 2381.88 2421.18 773.351 212.793 769.84 2594.34 465.634 379.98 2183.05 1990.17 836.303 588.676 965.685 1542.95 1931.14 154.448 192.887 257.32 202.692 76.4155 176.699 64.9945 336.07 2018.17 568.051 416.45 619.798 512.747 1176.6 560.559 780.81 36.094 961.104 23.1868 609.987 68.4135 197.276 1374.19 215.497 540.691 166.929 985.867 861.35 79.13 85.6536 54.628 769.775 131.367 56.9112 7883.07 1733.87 107.052 942.499 267.657 615.98 153.267 20.6246 168.758 17.6196 378.441 95.1099 19.868 955.587 34.6067
internal_count=147437 59596 87841 52236 35605 34687 32052 32498 51027 24335 27544 21507 17720 21096 15092 10545 20710 17406 20547 10383 2189 17190 6292 2489 12350 10221 5370 12419 10332 9603 10201 26692 10825 6265 12603 8128 6245 7587 10274 7529 5821 4137 162 6782 9984 1432 6868 4155 979 2478 6112 411 4959 163 1080 5788 70 841 3738 8171 4089 6889 6469 6615 2106 579 2080 7040 1260 1028 5905 5383 2275 1594 2627 4165 5262 420 522 698 550 207 481 176 908 5508 1538 1131 1684 1393 3181 1527 2129 98 2598 63 1659 185 537 3709 583 1473 453 2684 2350 216 232 148 2099 358 155 21252 4725 291 2564 723 1664 417 56 456 48 1031 259 54 2607 94
is_linear=0
shrinkage=0.01


Tree=9
num_leaves=91
num_cat=0
split_feature=11 14 1 34 34 27 14 22 35 34 35 34 24 34 22 27 16 2 12 11 24 24 11 2 12 16 34 1 35 2 22 8 11 19 14 35 24 19 30 12 34 32 12 16 34 35 9 15 33 29 2 1 16 33 33 35 31 3 1 31 15 34 15 30 31 19 22 31 30 34 1 24 24 1 14 27 22 11 3 19 3 12 0 1 12 33 1 9 16 33
split_gain=9874.94 6613.95 1657.77 1247.8 478.913 274.527 252.451 185.572 94.5123 93.0861 91.3849 85.0691 57.9123 50.1522 44.5527 36.7669 33.7047 32.5453 29.8362 24.5001 23.6373 21.3379 20.226 20.1434 19.9111 19.7607 18.9089 18.7998 18.7161 19.6437 18.6118 22.7583 18.0494 16.894 16.7493 16.3128 27.2818 15.059 14.98 14.6858 14.0617 13.1509 15.3566 12.7035 11.5667 11.4282 11.0065 10.4431 10.1828 8.91899 8.8842 8.62433 8.5921 7.59383 9.12344 6.80518 6.37963 6.23573 10.3528 10.0399 6.06873 21.5461 6.35911 5.49539 5.42279 5.35717 11.2534 5.35711 5.28718 5.17895 5.07596 7.3536 4.93134 4.81163 6.3597 3.77154 3.50761 4.76517 3.36745 3.22225 2.50793 2.40502 3.59889 2.22804 2.10614 1.25435 0.615648 0.339147 0.100442 0.0925877
